<?xml version="1.0"?>
<opencv_storage>
<cascade>
  <stageType>BOOST</stageType>
  <featureType>HAAR</featureType>
  <height>24</height>
  <width>24</width>
  <stageParams>
    <boostType>GAB</boostType>
    <minHitRate>9.9900001287460327e-01</minHitRate>
    <maxFalseAlarm>3.0000001192092896e-01</maxFalseAlarm>
    <weightTrimRate>9.4999999999999996e-01</weightTrimRate>
    <maxDepth>1</maxDepth>
    <maxWeakCount>100</maxWeakCount></stageParams>
  <featureParams>
    <maxCatCount>0</maxCatCount>
    <featSize>1</featSize>
    <mode>BASIC</mode></featureParams>
  <stageNum>15</stageNum>
  <stages>
    <!-- stage 0 -->
    <_>
      <maxWeakCount>20</maxWeakCount>
      <stageThreshold>-1.9717024564743042e+00</stageThreshold>
      <weakClassifiers>
        <_>
          <internalNodes>
            0 -1 213 -1.1517168581485748e-01</internalNodes>
          <leafValues>
            3.8350516557693481e-01 -6.7586207389831543e-01</leafValues></_>
        <_>
          <internalNodes>
            0 -1 972 -3.0547402799129486e-02</internalNodes>
          <leafValues>
            7.4865269660949707e-01 -2.7283161878585815e-01</leafValues></_>
        <_>
          <internalNodes>
            0 -1 59 -1.7199531197547913e-01</internalNodes>
          <leafValues>
            8.5285228490829468e-01 -2.1980762481689453e-01</leafValues></_>
        <_>
          <internalNodes>
            0 -1 11 1.1428871750831604e-01</internalNodes>
          <leafValues>
            -1.2898635864257813e-01 7.7524918317794800e-01</leafValues></_>
        <_>
          <internalNodes>
            0 -1 178 -7.9664275050163269e-02</internalNodes>
          <leafValues>
            7.3303753137588501e-01 -1.4797067642211914e-01</leafValues></_>
        <_>
          <internalNodes>
            0 -1 58 -6.7642465233802795e-02</internalNodes>
          <leafValues>
            6.6957509517669678e-01 -1.8063846230506897e-01</leafValues></_>
        <_>
          <internalNodes>
            0 -1 167 3.0959982424974442e-02</internalNodes>
          <leafValues>
            -1.5798932313919067e-01 7.5976365804672241e-01</leafValues></_>
        <_>
          <internalNodes>
            0 -1 827 -4.5044720172882080e-04</internalNodes>
          <leafValues>
            -6.5728539228439331e-01 2.0358793437480927e-01</leafValues></_>
        <_>
          <internalNodes>
            0 -1 827 6.9201306905597448e-04</internalNodes>
          <leafValues>
            1.8782128393650055e-01 -7.6899659633636475e-01</leafValues></_>
        <_>
          <internalNodes>
            0 -1 160 6.2124738469719887e-03</internalNodes>
          <leafValues>
            -2.8407201170921326e-01 4.9947446584701538e-01</leafValues></_>
        <_>
          <internalNodes>
            0 -1 864 -3.0198575928807259e-02</internalNodes>
          <leafValues>
            6.6649341583251953e-01 -1.4793063700199127e-01</leafValues></_>
        <_>
          <internalNodes>
            0 -1 601 -3.1961884815245867e-04</internalNodes>
          <leafValues>
            -5.7634961605072021e-01 2.1306921541690826e-01</leafValues></_>
        <_>
          <internalNodes>
            0 -1 536 -6.3891179859638214e-02</internalNodes>
          <leafValues>
            6.6993570327758789e-01 -1.6450649499893188e-01</leafValues></_>
        <_>
          <internalNodes>
            0 -1 314 -7.7578127384185791e-02</internalNodes>
          <leafValues>
            8.1719315052032471e-01 -1.2198401242494583e-01</leafValues></_>
        <_>
          <internalNodes>
            0 -1 966 5.2638596389442682e-04</internalNodes>
          <leafValues>
            1.8418477475643158e-01 -6.6933041810989380e-01</leafValues></_>
        <_>
          <internalNodes>
            0 -1 1064 -8.3857178688049316e-03</internalNodes>
          <leafValues>
            5.0786006450653076e-01 -2.2784967720508575e-01</leafValues></_>
        <_>
          <internalNodes>
            0 -1 856 -4.9829877912998199e-02</internalNodes>
          <leafValues>
            7.4032545089721680e-01 -1.2831994891166687e-01</leafValues></_>
        <_>
          <internalNodes>
            0 -1 373 1.2047570943832397e-01</internalNodes>
          <leafValues>
            -1.2672562897205353e-01 7.1278411149978638e-01</leafValues></_>
        <_>
          <internalNodes>
            0 -1 270 -4.5508682727813721e-02</internalNodes>
          <leafValues>
            7.7400475740432739e-01 -1.4559195935726166e-01</leafValues></_>
        <_>
          <internalNodes>
            0 -1 1112 3.3031695056706667e-04</internalNodes>
          <leafValues>
            2.1008987724781036e-01 -5.7304161787033081e-01</leafValues></_></weakClassifiers></_>
    <!-- stage 1 -->
    <_>
      <maxWeakCount>30</maxWeakCount>
      <stageThreshold>-1.6595841646194458e+00</stageThreshold>
      <weakClassifiers>
        <_>
          <internalNodes>
            0 -1 50 2.7135208249092102e-01</internalNodes>
          <leafValues>
            -5.4752689599990845e-01 4.0444445610046387e-01</leafValues></_>
        <_>
          <internalNodes>
            0 -1 229 -2.7616050094366074e-02</internalNodes>
          <leafValues>
            2.9724860191345215e-01 -3.2140365242958069e-01</leafValues></_>
        <_>
          <internalNodes>
            0 -1 601 4.7673081280663610e-04</internalNodes>
          <leafValues>
            1.6687396168708801e-01 -5.9292584657669067e-01</leafValues></_>
        <_>
          <internalNodes>
            0 -1 978 -4.2796909809112549e-02</internalNodes>
          <leafValues>
            7.5748139619827271e-01 -9.5036715269088745e-02</leafValues></_>
        <_>
          <internalNodes>
            0 -1 900 1.5891969203948975e-02</internalNodes>
          <leafValues>
            -1.8936328589916229e-01 4.7452297806739807e-01</leafValues></_>
        <_>
          <internalNodes>
            0 -1 928 -3.7996796891093254e-04</internalNodes>
          <leafValues>
            -6.5039372444152832e-01 1.2599141895771027e-01</leafValues></_>
        <_>
          <internalNodes>
            0 -1 928 5.1025842549279332e-04</internalNodes>
          <leafValues>
            1.8089894950389862e-01 -6.1673712730407715e-01</leafValues></_>
        <_>
          <internalNodes>
            0 -1 23 -2.3571079596877098e-02</internalNodes>
          <leafValues>
            5.8769297599792480e-01 -2.1486142277717590e-01</leafValues></_>
        <_>
          <internalNodes>
            0 -1 172 -5.5115297436714172e-02</internalNodes>
          <leafValues>
            6.1289244890213013e-01 -1.3269729912281036e-01</leafValues></_>
        <_>
          <internalNodes>
            0 -1 437 -1.0964614152908325e-01</internalNodes>
          <leafValues>
            5.3878170251846313e-01 -1.7777511477470398e-01</leafValues></_>
        <_>
          <internalNodes>
            0 -1 43 1.8087998032569885e-02</internalNodes>
          <leafValues>
            -1.5995191037654877e-01 6.8395256996154785e-01</leafValues></_>
        <_>
          <internalNodes>
            0 -1 79 -1.8231637775897980e-02</internalNodes>
          <leafValues>
            4.3191832304000854e-01 -1.8047185242176056e-01</leafValues></_>
        <_>
          <internalNodes>
            0 -1 600 -4.6483054757118225e-04</internalNodes>
          <leafValues>
            -5.9903788566589355e-01 1.4867140352725983e-01</leafValues></_>
        <_>
          <internalNodes>
            0 -1 168 2.2338859736919403e-02</internalNodes>
          <leafValues>
            -2.1239849925041199e-01 4.6063384413719177e-01</leafValues></_>
        <_>
          <internalNodes>
            0 -1 156 -7.9606892541050911e-04</internalNodes>
          <leafValues>
            -7.4866735935211182e-01 1.1768113821744919e-01</leafValues></_>
        <_>
          <internalNodes>
            0 -1 648 9.3326285481452942e-02</internalNodes>
          <leafValues>
            -1.2606360018253326e-01 7.3312413692474365e-01</leafValues></_>
        <_>
          <internalNodes>
            0 -1 161 3.9169652154669166e-04</internalNodes>
          <leafValues>
            1.4577411115169525e-01 -5.9697657823562622e-01</leafValues></_>
        <_>
          <internalNodes>
            0 -1 139 -2.2209811955690384e-02</internalNodes>
          <leafValues>
            4.1414523124694824e-01 -1.8736223876476288e-01</leafValues></_>
        <_>
          <internalNodes>
            0 -1 256 -1.4979264140129089e-01</internalNodes>
          <leafValues>
            6.8744146823883057e-01 -1.1395116895437241e-01</leafValues></_>
        <_>
          <internalNodes>
            0 -1 827 -9.2119339387863874e-04</internalNodes>
          <leafValues>
            -8.8957631587982178e-01 9.7628757357597351e-02</leafValues></_>
        <_>
          <internalNodes>
            0 -1 771 -3.2707139849662781e-02</internalNodes>
          <leafValues>
            5.8620232343673706e-01 -1.5676677227020264e-01</leafValues></_>
        <_>
          <internalNodes>
            0 -1 30 -9.7078114748001099e-02</internalNodes>
          <leafValues>
            5.6434166431427002e-01 -1.2964306771755219e-01</leafValues></_>
        <_>
          <internalNodes>
            0 -1 468 7.2002924978733063e-02</internalNodes>
          <leafValues>
            -1.2101925164461136e-01 6.2676376104354858e-01</leafValues></_>
        <_>
          <internalNodes>
            0 -1 243 -1.0244803503155708e-02</internalNodes>
          <leafValues>
            4.9000042676925659e-01 -1.6128867864608765e-01</leafValues></_>
        <_>
          <internalNodes>
            0 -1 1113 -2.7496210532262921e-04</internalNodes>
          <leafValues>
            -5.7719147205352783e-01 1.4521071314811707e-01</leafValues></_>
        <_>
          <internalNodes>
            0 -1 871 -2.5918724015355110e-02</internalNodes>
          <leafValues>
            5.2654916048049927e-01 -1.5249662101268768e-01</leafValues></_>
        <_>
          <internalNodes>
            0 -1 785 -4.2936101090162992e-04</internalNodes>
          <leafValues>
            -6.1298590898513794e-01 1.2901772558689117e-01</leafValues></_>
        <_>
          <internalNodes>
            0 -1 267 1.1254554986953735e-01</internalNodes>
          <leafValues>
            -1.2070419639348984e-01 7.2481060028076172e-01</leafValues></_>
        <_>
          <internalNodes>
            0 -1 332 -6.0142502188682556e-02</internalNodes>
          <leafValues>
            7.4614512920379639e-01 -9.5896258950233459e-02</leafValues></_>
        <_>
          <internalNodes>
            0 -1 785 7.0601410698145628e-04</internalNodes>
          <leafValues>
            1.2402939051389694e-01 -6.7807310819625854e-01</leafValues></_></weakClassifiers></_>
    <!-- stage 2 -->
    <_>
      <maxWeakCount>51</maxWeakCount>
      <stageThreshold>-1.4696878194808960e+00</stageThreshold>
      <weakClassifiers>
        <_>
          <internalNodes>
            0 -1 230 -4.9161974340677261e-02</internalNodes>
          <leafValues>
            1.6977225244045258e-01 -5.7227140665054321e-01</leafValues></_>
        <_>
          <internalNodes>
            0 -1 434 4.8861466348171234e-02</internalNodes>
          <leafValues>
            -2.9209321737289429e-01 4.3730944395065308e-01</leafValues></_>
        <_>
          <internalNodes>
            0 -1 1062 -8.8169276714324951e-03</internalNodes>
          <leafValues>
            4.0511083602905273e-01 -1.8042327463626862e-01</leafValues></_>
        <_>
          <internalNodes>
            0 -1 579 -1.9376996904611588e-02</internalNodes>
          <leafValues>
            4.0714570879936218e-01 -1.4112229645252228e-01</leafValues></_>
        <_>
          <internalNodes>
            0 -1 470 -6.8539013154804707e-03</internalNodes>
          <leafValues>
            4.6003797650337219e-01 -1.2864439189434052e-01</leafValues></_>
        <_>
          <internalNodes>
            0 -1 385 -6.9205379113554955e-03</internalNodes>
          <leafValues>
            4.4176295399665833e-01 -1.0697425156831741e-01</leafValues></_>
        <_>
          <internalNodes>
            0 -1 1083 2.2186101414263248e-03</internalNodes>
          <leafValues>
            -1.4329223334789276e-01 3.4129187464714050e-01</leafValues></_>
        <_>
          <internalNodes>
            0 -1 703 -6.5225979778915644e-04</internalNodes>
          <leafValues>
            -4.8378717899322510e-01 1.1391513049602509e-01</leafValues></_>
        <_>
          <internalNodes>
            0 -1 703 2.8533680597320199e-04</internalNodes>
          <leafValues>
            1.4839424192905426e-01 -3.7104752659797668e-01</leafValues></_>
        <_>
          <internalNodes>
            0 -1 115 -8.1687550991773605e-03</internalNodes>
          <leafValues>
            3.2823681831359863e-01 -1.4957951009273529e-01</leafValues></_>
        <_>
          <internalNodes>
            0 -1 77 2.0424686372280121e-02</internalNodes>
          <leafValues>
            -9.2808768153190613e-02 5.4850029945373535e-01</leafValues></_>
        <_>
          <internalNodes>
            0 -1 166 -7.9994788393378258e-04</internalNodes>
          <leafValues>
            -3.6670291423797607e-01 1.3717307150363922e-01</leafValues></_>
        <_>
          <internalNodes>
            0 -1 631 6.1613824218511581e-03</internalNodes>
          <leafValues>
            -1.2371255457401276e-01 4.4790142774581909e-01</leafValues></_>
        <_>
          <internalNodes>
            0 -1 86 7.4347886256873608e-03</internalNodes>
          <leafValues>
            -1.2372240424156189e-01 3.6837989091873169e-01</leafValues></_>
        <_>
          <internalNodes>
            0 -1 872 -9.8568852990865707e-04</internalNodes>
          <leafValues>
            1.8887066841125488e-01 -2.3050823807716370e-01</leafValues></_>
        <_>
          <internalNodes>
            0 -1 707 3.2075378112494946e-03</internalNodes>
          <leafValues>
            -1.2329921126365662e-01 3.6794355511665344e-01</leafValues></_>
        <_>
          <internalNodes>
            0 -1 928 -4.6052315155975521e-04</internalNodes>
          <leafValues>
            -5.9982341527938843e-01 6.9191306829452515e-02</leafValues></_>
        <_>
          <internalNodes>
            0 -1 561 -2.0879225339740515e-03</internalNodes>
          <leafValues>
            3.0467697978019714e-01 -1.3915568590164185e-01</leafValues></_>
        <_>
          <internalNodes>
            0 -1 958 8.9146466925740242e-03</internalNodes>
          <leafValues>
            -1.0732036083936691e-01 4.1067531704902649e-01</leafValues></_>
        <_>
          <internalNodes>
            0 -1 735 -1.6286347061395645e-02</internalNodes>
          <leafValues>
            3.6154910922050476e-01 -1.2408099323511124e-01</leafValues></_>
        <_>
          <internalNodes>
            0 -1 967 -3.0115086701698601e-04</internalNodes>
          <leafValues>
            -4.0761706233024597e-01 1.1191139370203018e-01</leafValues></_>
        <_>
          <internalNodes>
            0 -1 504 -4.4520031660795212e-03</internalNodes>
          <leafValues>
            -2.7678385376930237e-01 1.3841494917869568e-01</leafValues></_>
        <_>
          <internalNodes>
            0 -1 183 -4.0928333997726440e-02</internalNodes>
          <leafValues>
            4.7264242172241211e-01 -8.1060007214546204e-02</leafValues></_>
        <_>
          <internalNodes>
            0 -1 250 1.3213008642196655e-02</internalNodes>
          <leafValues>
            -1.5115147829055786e-01 3.1230923533439636e-01</leafValues></_>
        <_>
          <internalNodes>
            0 -1 317 -7.1682622656226158e-03</internalNodes>
          <leafValues>
            3.6963272094726563e-01 -1.1507566273212433e-01</leafValues></_>
        <_>
          <internalNodes>
            0 -1 970 -1.3213999569416046e-02</internalNodes>
          <leafValues>
            3.2357278466224670e-01 -1.2117858231067657e-01</leafValues></_>
        <_>
          <internalNodes>
            0 -1 984 -7.9653374850749969e-03</internalNodes>
          <leafValues>
            3.1689912080764771e-01 -1.2344378232955933e-01</leafValues></_>
        <_>
          <internalNodes>
            0 -1 367 2.6808409020304680e-02</internalNodes>
          <leafValues>
            -1.4954993128776550e-01 2.6185312867164612e-01</leafValues></_>
        <_>
          <internalNodes>
            0 -1 931 -2.2759550483897328e-04</internalNodes>
          <leafValues>
            -3.4598404169082642e-01 1.1488512903451920e-01</leafValues></_>
        <_>
          <internalNodes>
            0 -1 185 -1.0432857275009155e-01</internalNodes>
          <leafValues>
            3.8802030682563782e-01 -1.0448981821537018e-01</leafValues></_>
        <_>
          <internalNodes>
            0 -1 340 1.0488296858966351e-02</internalNodes>
          <leafValues>
            -6.8962588906288147e-02 5.4592347145080566e-01</leafValues></_>
        <_>
          <internalNodes>
            0 -1 518 3.3215653151273727e-02</internalNodes>
          <leafValues>
            -1.0003310441970825e-01 3.8572618365287781e-01</leafValues></_>
        <_>
          <internalNodes>
            0 -1 37 9.0902097523212433e-02</internalNodes>
          <leafValues>
            -9.6824787557125092e-02 3.8268429040908813e-01</leafValues></_>
        <_>
          <internalNodes>
            0 -1 249 3.3315554261207581e-02</internalNodes>
          <leafValues>
            -1.0331329703330994e-01 3.5937672853469849e-01</leafValues></_>
        <_>
          <internalNodes>
            0 -1 907 -1.3994080945849419e-02</internalNodes>
          <leafValues>
            4.2799136042594910e-01 -8.7837137281894684e-02</leafValues></_>
        <_>
          <internalNodes>
            0 -1 929 1.9730749772861600e-04</internalNodes>
          <leafValues>
            1.4320254325866699e-01 -2.8281787037849426e-01</leafValues></_>
        <_>
          <internalNodes>
            0 -1 767 -1.0953198652714491e-03</internalNodes>
          <leafValues>
            -4.3108025193214417e-01 8.9580968022346497e-02</leafValues></_>
        <_>
          <internalNodes>
            0 -1 480 -1.6592355072498322e-01</internalNodes>
          <leafValues>
            3.8099545240402222e-01 -1.0679902881383896e-01</leafValues></_>
        <_>
          <internalNodes>
            0 -1 455 2.2085833188612014e-04</internalNodes>
          <leafValues>
            1.2026455253362656e-01 -3.1872516870498657e-01</leafValues></_>
        <_>
          <internalNodes>
            0 -1 584 -2.0813061855733395e-03</internalNodes>
          <leafValues>
            2.5717136263847351e-01 -1.7129226028919220e-01</leafValues></_>
        <_>
          <internalNodes>
            0 -1 357 -2.0473007112741470e-02</internalNodes>
          <leafValues>
            2.8802895545959473e-01 -1.3646823167800903e-01</leafValues></_>
        <_>
          <internalNodes>
            0 -1 417 -1.1742824688553810e-02</internalNodes>
          <leafValues>
            -8.2101756334304810e-01 4.6930499374866486e-02</leafValues></_>
        <_>
          <internalNodes>
            0 -1 223 -2.6924470439553261e-03</internalNodes>
          <leafValues>
            2.4800541996955872e-01 -1.5857297182083130e-01</leafValues></_>
        <_>
          <internalNodes>
            0 -1 209 1.1655406095087528e-02</internalNodes>
          <leafValues>
            -1.4382368326187134e-01 3.1174543499946594e-01</leafValues></_>
        <_>
          <internalNodes>
            0 -1 304 2.2641863324679434e-04</internalNodes>
          <leafValues>
            1.0301601886749268e-01 -3.6891838908195496e-01</leafValues></_>
        <_>
          <internalNodes>
            0 -1 29 -5.7903183624148369e-03</internalNodes>
          <leafValues>
            3.1620106101036072e-01 -1.1977755278348923e-01</leafValues></_>
        <_>
          <internalNodes>
            0 -1 40 -6.3530516624450684e-01</internalNodes>
          <leafValues>
            -7.5054186582565308e-01 4.8658624291419983e-02</leafValues></_>
        <_>
          <internalNodes>
            0 -1 664 -1.5183404320850968e-03</internalNodes>
          <leafValues>
            -5.9620261192321777e-01 5.1811520010232925e-02</leafValues></_>
        <_>
          <internalNodes>
            0 -1 486 -1.1927880223083775e-05</internalNodes>
          <leafValues>
            2.0297978818416595e-01 -1.6858837008476257e-01</leafValues></_>
        <_>
          <internalNodes>
            0 -1 1109 -3.9907245081849396e-04</internalNodes>
          <leafValues>
            -3.3164003491401672e-01 1.0464261472225189e-01</leafValues></_>
        <_>
          <internalNodes>
            0 -1 621 -7.3167709633708000e-03</internalNodes>
          <leafValues>
            2.6325702667236328e-01 -1.3421434164047241e-01</leafValues></_></weakClassifiers></_>
    <!-- stage 3 -->
    <_>
      <maxWeakCount>72</maxWeakCount>
      <stageThreshold>-1.3861991167068481e+00</stageThreshold>
      <weakClassifiers>
        <_>
          <internalNodes>
            0 -1 177 3.2475215196609497e-01</internalNodes>
          <leafValues>
            -5.1284402608871460e-01 1.4390243589878082e-01</leafValues></_>
        <_>
          <internalNodes>
            0 -1 303 1.2269288999959826e-03</internalNodes>
          <leafValues>
            -2.8934097290039063e-01 2.2009700536727905e-01</leafValues></_>
        <_>
          <internalNodes>
            0 -1 212 -3.8485072553157806e-02</internalNodes>
          <leafValues>
            1.6523963212966919e-01 -2.9722031950950623e-01</leafValues></_>
        <_>
          <internalNodes>
            0 -1 1061 -1.2023635463265236e-05</internalNodes>
          <leafValues>
            2.4472169578075409e-01 -1.9846081733703613e-01</leafValues></_>
        <_>
          <internalNodes>
            0 -1 704 -3.7736544618383050e-04</internalNodes>
          <leafValues>
            -4.2694461345672607e-01 1.3764019310474396e-01</leafValues></_>
        <_>
          <internalNodes>
            0 -1 704 1.6880751354619861e-04</internalNodes>
          <leafValues>
            1.2424020469188690e-01 -4.1761153936386108e-01</leafValues></_>
        <_>
          <internalNodes>
            0 -1 204 -1.7835332080721855e-02</internalNodes>
          <leafValues>
            4.1458666324615479e-01 -1.0565458238124847e-01</leafValues></_>
        <_>
          <internalNodes>
            0 -1 208 1.5016308985650539e-02</internalNodes>
          <leafValues>
            -1.2552343308925629e-01 4.6287980675697327e-01</leafValues></_>
        <_>
          <internalNodes>
            0 -1 140 -1.2023635463265236e-05</internalNodes>
          <leafValues>
            2.1253648400306702e-01 -1.8984663486480713e-01</leafValues></_>
        <_>
          <internalNodes>
            0 -1 106 -4.1420022025704384e-03</internalNodes>
          <leafValues>
            -3.0388632416725159e-01 1.2924523651599884e-01</leafValues></_>
        <_>
          <internalNodes>
            0 -1 914 1.0807940736413002e-02</internalNodes>
          <leafValues>
            -1.0537092387676239e-01 3.5528299212455750e-01</leafValues></_>
        <_>
          <internalNodes>
            0 -1 269 -8.9272484183311462e-03</internalNodes>
          <leafValues>
            3.3768814802169800e-01 -1.1001615226268768e-01</leafValues></_>
        <_>
          <internalNodes>
            0 -1 766 -9.1011255979537964e-02</internalNodes>
          <leafValues>
            5.3754317760467529e-01 -7.2577446699142456e-02</leafValues></_>
        <_>
          <internalNodes>
            0 -1 754 2.0989103359170258e-04</internalNodes>
          <leafValues>
            1.0102000087499619e-01 -3.4482669830322266e-01</leafValues></_>
        <_>
          <internalNodes>
            0 -1 829 -1.1477880179882050e-03</internalNodes>
          <leafValues>
            -2.5449174642562866e-01 1.3423056900501251e-01</leafValues></_>
        <_>
          <internalNodes>
            0 -1 576 -1.4783497899770737e-03</internalNodes>
          <leafValues>
            2.2541908919811249e-01 -1.5766963362693787e-01</leafValues></_>
        <_>
          <internalNodes>
            0 -1 335 9.0792909264564514e-02</internalNodes>
          <leafValues>
            -6.3207909464836121e-02 5.4422152042388916e-01</leafValues></_>
        <_>
          <internalNodes>
            0 -1 590 1.8811896443367004e-02</internalNodes>
          <leafValues>
            -9.0958647429943085e-02 4.4936811923980713e-01</leafValues></_>
        <_>
          <internalNodes>
            0 -1 524 -8.1015452742576599e-03</internalNodes>
          <leafValues>
            3.8130202889442444e-01 -8.2940600812435150e-02</leafValues></_>
        <_>
          <internalNodes>
            0 -1 1102 -3.1870836392045021e-03</internalNodes>
          <leafValues>
            3.1235229969024658e-01 -1.0626014322042465e-01</leafValues></_>
        <_>
          <internalNodes>
            0 -1 302 1.2791418157576118e-05</internalNodes>
          <leafValues>
            -1.5477351844310760e-01 2.2871495783329010e-01</leafValues></_>
        <_>
          <internalNodes>
            0 -1 565 -1.3108934508636594e-03</internalNodes>
          <leafValues>
            -5.7916253805160522e-01 6.0469910502433777e-02</leafValues></_>
        <_>
          <internalNodes>
            0 -1 1015 -1.1736497981473804e-05</internalNodes>
          <leafValues>
            2.2962832450866699e-01 -1.5512438118457794e-01</leafValues></_>
        <_>
          <internalNodes>
            0 -1 33 -3.2183200120925903e-02</internalNodes>
          <leafValues>
            3.0428680777549744e-01 -1.1164847761392593e-01</leafValues></_>
        <_>
          <internalNodes>
            0 -1 820 -2.4571767426095903e-05</internalNodes>
          <leafValues>
            1.8999163806438446e-01 -1.8086151778697968e-01</leafValues></_>
        <_>
          <internalNodes>
            0 -1 617 -5.3639505058526993e-03</internalNodes>
          <leafValues>
            3.4688231348991394e-01 -1.0047891736030579e-01</leafValues></_>
        <_>
          <internalNodes>
            0 -1 68 -4.1618920862674713e-02</internalNodes>
          <leafValues>
            2.8717502951622009e-01 -1.0735806077718735e-01</leafValues></_>
        <_>
          <internalNodes>
            0 -1 741 -1.0306831682100892e-03</internalNodes>
          <leafValues>
            -4.3565270304679871e-01 7.3137171566486359e-02</leafValues></_>
        <_>
          <internalNodes>
            0 -1 995 -5.8484328910708427e-03</internalNodes>
          <leafValues>
            2.4732030928134918e-01 -1.3875053822994232e-01</leafValues></_>
        <_>
          <internalNodes>
            0 -1 101 6.9847311824560165e-03</internalNodes>
          <leafValues>
            -1.4694753289222717e-01 2.2037869691848755e-01</leafValues></_>
        <_>
          <internalNodes>
            0 -1 36 -6.9209650158882141e-02</internalNodes>
          <leafValues>
            3.6902591586112976e-01 -9.2437997460365295e-02</leafValues></_>
        <_>
          <internalNodes>
            0 -1 334 -1.0751372203230858e-02</internalNodes>
          <leafValues>
            4.2902788519859314e-01 -7.6463788747787476e-02</leafValues></_>
        <_>
          <internalNodes>
            0 -1 931 -5.6370632955804467e-04</internalNodes>
          <leafValues>
            -4.7072771191596985e-01 6.9557927548885345e-02</leafValues></_>
        <_>
          <internalNodes>
            0 -1 1037 3.4168316051363945e-03</internalNodes>
          <leafValues>
            -9.6753038465976715e-02 3.6365509033203125e-01</leafValues></_>
        <_>
          <internalNodes>
            0 -1 728 7.2836717590689659e-03</internalNodes>
          <leafValues>
            -7.5918458402156830e-02 4.0441882610321045e-01</leafValues></_>
        <_>
          <internalNodes>
            0 -1 807 -3.4310426563024521e-03</internalNodes>
          <leafValues>
            -6.9995689392089844e-01 4.4568616896867752e-02</leafValues></_>
        <_>
          <internalNodes>
            0 -1 399 -5.2160449326038361e-02</internalNodes>
          <leafValues>
            5.7466614246368408e-01 -5.9794243425130844e-02</leafValues></_>
        <_>
          <internalNodes>
            0 -1 1126 -4.6388609334826469e-03</internalNodes>
          <leafValues>
            3.4275284409523010e-01 -8.0233350396156311e-02</leafValues></_>
        <_>
          <internalNodes>
            0 -1 743 3.6191004328429699e-03</internalNodes>
          <leafValues>
            -1.4285738766193390e-01 2.1033111214637756e-01</leafValues></_>
        <_>
          <internalNodes>
            0 -1 931 2.1360945538617671e-04</internalNodes>
          <leafValues>
            1.0033424198627472e-01 -3.2660657167434692e-01</leafValues></_>
        <_>
          <internalNodes>
            0 -1 316 -2.1246002987027168e-02</internalNodes>
          <leafValues>
            -8.0584901571273804e-01 3.2549805939197540e-02</leafValues></_>
        <_>
          <internalNodes>
            0 -1 670 7.4856383726000786e-03</internalNodes>
          <leafValues>
            -1.2192704528570175e-01 2.7332329750061035e-01</leafValues></_>
        <_>
          <internalNodes>
            0 -1 163 -9.8156929016113281e-04</internalNodes>
          <leafValues>
            -4.5161557197570801e-01 7.0475049316883087e-02</leafValues></_>
        <_>
          <internalNodes>
            0 -1 412 -2.8277642559260130e-03</internalNodes>
          <leafValues>
            2.8080505132675171e-01 -1.1883962899446487e-01</leafValues></_>
        <_>
          <internalNodes>
            0 -1 727 -7.0480519207194448e-04</internalNodes>
          <leafValues>
            1.8102060258388519e-01 -1.7127323150634766e-01</leafValues></_>
        <_>
          <internalNodes>
            0 -1 659 -4.5238607563078403e-03</internalNodes>
          <leafValues>
            -6.2482339143753052e-01 4.2490489780902863e-02</leafValues></_>
        <_>
          <internalNodes>
            0 -1 1019 -1.1850059308926575e-05</internalNodes>
          <leafValues>
            1.8384246528148651e-01 -1.5999853610992432e-01</leafValues></_>
        <_>
          <internalNodes>
            0 -1 1030 -1.1736497981473804e-05</internalNodes>
          <leafValues>
            2.0454591512680054e-01 -1.5336397290229797e-01</leafValues></_>
        <_>
          <internalNodes>
            0 -1 613 -1.1420988012105227e-03</internalNodes>
          <leafValues>
            -4.2038992047309875e-01 7.0955492556095123e-02</leafValues></_>
        <_>
          <internalNodes>
            0 -1 67 3.8082063198089600e-02</internalNodes>
          <leafValues>
            -9.0108387172222137e-02 3.3662277460098267e-01</leafValues></_>
        <_>
          <internalNodes>
            0 -1 275 -1.1943732715735678e-05</internalNodes>
          <leafValues>
            1.8079014122486115e-01 -1.6046719253063202e-01</leafValues></_>
        <_>
          <internalNodes>
            0 -1 912 6.3637546263635159e-03</internalNodes>
          <leafValues>
            1.0480549186468124e-01 -2.9118904471397400e-01</leafValues></_>
        <_>
          <internalNodes>
            0 -1 833 -1.0916830971837044e-02</internalNodes>
          <leafValues>
            2.9342162609100342e-01 -9.6248432993888855e-02</leafValues></_>
        <_>
          <internalNodes>
            0 -1 879 -1.8404295668005943e-02</internalNodes>
          <leafValues>
            7.1385884284973145e-01 -3.4700125455856323e-02</leafValues></_>
        <_>
          <internalNodes>
            0 -1 646 1.4994485536590219e-04</internalNodes>
          <leafValues>
            1.0687721520662308e-01 -2.8102493286132813e-01</leafValues></_>
        <_>
          <internalNodes>
            0 -1 646 -2.3286708164960146e-04</internalNodes>
          <leafValues>
            -3.3403068780899048e-01 9.7545564174652100e-02</leafValues></_>
        <_>
          <internalNodes>
            0 -1 702 1.1943732715735678e-05</internalNodes>
          <leafValues>
            -1.3559551537036896e-01 2.1646785736083984e-01</leafValues></_>
        <_>
          <internalNodes>
            0 -1 315 -4.5477837324142456e-02</internalNodes>
          <leafValues>
            2.4156004190444946e-01 -1.2728507816791534e-01</leafValues></_>
        <_>
          <internalNodes>
            0 -1 867 9.0018007904291153e-03</internalNodes>
          <leafValues>
            -7.8694768249988556e-02 3.5478582978248596e-01</leafValues></_>
        <_>
          <internalNodes>
            0 -1 569 -1.2621870636940002e-01</internalNodes>
          <leafValues>
            6.9444978237152100e-01 -4.1580688208341599e-02</leafValues></_>
        <_>
          <internalNodes>
            0 -1 284 -1.3283432053867728e-05</internalNodes>
          <leafValues>
            2.0102658867835999e-01 -1.3510309159755707e-01</leafValues></_>
        <_>
          <internalNodes>
            0 -1 221 1.0718374513089657e-02</internalNodes>
          <leafValues>
            -6.1051417142152786e-02 4.8794314265251160e-01</leafValues></_>
        <_>
          <internalNodes>
            0 -1 462 -3.0536952544935048e-04</internalNodes>
          <leafValues>
            -2.5840514898300171e-01 1.1077010631561279e-01</leafValues></_>
        <_>
          <internalNodes>
            0 -1 408 -1.2774954666383564e-04</internalNodes>
          <leafValues>
            -2.4815180897712708e-01 1.1472332477569580e-01</leafValues></_>
        <_>
          <internalNodes>
            0 -1 460 -1.5473058738280088e-04</internalNodes>
          <leafValues>
            -2.6268941164016724e-01 1.0653344541788101e-01</leafValues></_>
        <_>
          <internalNodes>
            0 -1 327 2.2444932255893946e-05</internalNodes>
          <leafValues>
            -1.5312060713768005e-01 1.8124914169311523e-01</leafValues></_>
        <_>
          <internalNodes>
            0 -1 877 -2.3132193833589554e-02</internalNodes>
          <leafValues>
            3.5045769810676575e-01 -8.1225305795669556e-02</leafValues></_>
        <_>
          <internalNodes>
            0 -1 188 1.4600676484405994e-02</internalNodes>
          <leafValues>
            -7.1492865681648254e-02 4.1415414214134216e-01</leafValues></_>
        <_>
          <internalNodes>
            0 -1 288 -2.2200741805136204e-03</internalNodes>
          <leafValues>
            2.5677385926246643e-01 -1.2099190801382065e-01</leafValues></_>
        <_>
          <internalNodes>
            0 -1 574 -1.7468877136707306e-02</internalNodes>
          <leafValues>
            2.4411578476428986e-01 -1.1852474510669708e-01</leafValues></_>
        <_>
          <internalNodes>
            0 -1 12 1.6233023256063461e-02</internalNodes>
          <leafValues>
            -9.1675080358982086e-02 3.4414744377136230e-01</leafValues></_>
        <_>
          <internalNodes>
            0 -1 676 1.9571618176996708e-03</internalNodes>
          <leafValues>
            6.2631212174892426e-02 -4.7956460714340210e-01</leafValues></_></weakClassifiers></_>
    <!-- stage 4 -->
    <_>
      <maxWeakCount>68</maxWeakCount>
      <stageThreshold>-1.0601596832275391e+00</stageThreshold>
      <weakClassifiers>
        <_>
          <internalNodes>
            0 -1 440 -2.0959776639938354e-01</internalNodes>
          <leafValues>
            6.9629631936550140e-02 -4.5032256841659546e-01</leafValues></_>
        <_>
          <internalNodes>
            0 -1 153 -1.3933747541159391e-03</internalNodes>
          <leafValues>
            3.0493265390396118e-01 -1.8037548661231995e-01</leafValues></_>
        <_>
          <internalNodes>
            0 -1 598 1.1736497981473804e-05</internalNodes>
          <leafValues>
            -2.2159725427627563e-01 1.8560671806335449e-01</leafValues></_>
        <_>
          <internalNodes>
            0 -1 982 -1.1763999238610268e-02</internalNodes>
          <leafValues>
            2.7358537912368774e-01 -1.4194606244564056e-01</leafValues></_>
        <_>
          <internalNodes>
            0 -1 540 2.8618499636650085e-02</internalNodes>
          <leafValues>
            -9.3924313783645630e-02 4.1403037309646606e-01</leafValues></_>
        <_>
          <internalNodes>
            0 -1 514 -2.5600295048207045e-03</internalNodes>
          <leafValues>
            -5.4857361316680908e-01 6.7725419998168945e-02</leafValues></_>
        <_>
          <internalNodes>
            0 -1 632 7.2133410722017288e-03</internalNodes>
          <leafValues>
            -8.6922839283943176e-02 3.5287487506866455e-01</leafValues></_>
        <_>
          <internalNodes>
            0 -1 566 -1.8888661637902260e-02</internalNodes>
          <leafValues>
            -8.6270725727081299e-01 3.0819987878203392e-02</leafValues></_>
        <_>
          <internalNodes>
            0 -1 26 -2.6828985661268234e-02</internalNodes>
          <leafValues>
            5.1937907934188843e-01 -6.1013851314783096e-02</leafValues></_>
        <_>
          <internalNodes>
            0 -1 415 3.4394357353448868e-02</internalNodes>
          <leafValues>
            -1.1532398313283920e-01 2.9638823866844177e-01</leafValues></_>
        <_>
          <internalNodes>
            0 -1 553 1.8066864460706711e-02</internalNodes>
          <leafValues>
            -4.8611529171466827e-02 4.5966923236846924e-01</leafValues></_>
        <_>
          <internalNodes>
            0 -1 646 -9.2112930724397302e-04</internalNodes>
          <leafValues>
            -6.4112967252731323e-01 4.1742358356714249e-02</leafValues></_>
        <_>
          <internalNodes>
            0 -1 924 2.2643327247351408e-03</internalNodes>
          <leafValues>
            -1.7403253912925720e-01 1.9723039865493774e-01</leafValues></_>
        <_>
          <internalNodes>
            0 -1 182 -1.4057063497602940e-02</internalNodes>
          <leafValues>
            2.7503237128257751e-01 -1.1938472092151642e-01</leafValues></_>
        <_>
          <internalNodes>
            0 -1 200 4.1322186589241028e-03</internalNodes>
          <leafValues>
            -1.0255054384469986e-01 4.0375441312789917e-01</leafValues></_>
        <_>
          <internalNodes>
            0 -1 1141 -6.6388410050421953e-04</internalNodes>
          <leafValues>
            -5.9021204710006714e-01 6.5481431782245636e-02</leafValues></_>
        <_>
          <internalNodes>
            0 -1 1114 -9.4316143076866865e-04</internalNodes>
          <leafValues>
            -6.0576349496841431e-01 4.8884171992540359e-02</leafValues></_>
        <_>
          <internalNodes>
            0 -1 923 2.5075734592974186e-03</internalNodes>
          <leafValues>
            -1.5179817378520966e-01 2.4172343313694000e-01</leafValues></_>
        <_>
          <internalNodes>
            0 -1 874 4.8481617122888565e-03</internalNodes>
          <leafValues>
            -1.0479672253131866e-01 2.7305045723915100e-01</leafValues></_>
        <_>
          <internalNodes>
            0 -1 873 -1.8262811936438084e-03</internalNodes>
          <leafValues>
            2.2334346175193787e-01 -1.3628834486007690e-01</leafValues></_>
        <_>
          <internalNodes>
            0 -1 646 6.6584988962858915e-04</internalNodes>
          <leafValues>
            5.5586110800504684e-02 -5.6615060567855835e-01</leafValues></_>
        <_>
          <internalNodes>
            0 -1 729 4.0091085247695446e-04</internalNodes>
          <leafValues>
            7.7562838792800903e-02 -3.2918623089790344e-01</leafValues></_>
        <_>
          <internalNodes>
            0 -1 1071 4.4654957950115204e-02</internalNodes>
          <leafValues>
            6.2875933945178986e-02 -4.1248422861099243e-01</leafValues></_>
        <_>
          <internalNodes>
            0 -1 686 -4.0189072489738464e-02</internalNodes>
          <leafValues>
            6.9493985176086426e-01 -4.0443770587444305e-02</leafValues></_>
        <_>
          <internalNodes>
            0 -1 1 -8.4629963384941220e-04</internalNodes>
          <leafValues>
            -3.4572637081146240e-01 7.5912870466709137e-02</leafValues></_>
        <_>
          <internalNodes>
            0 -1 796 1.1311924085021019e-02</internalNodes>
          <leafValues>
            -8.2428567111492157e-02 3.5102534294128418e-01</leafValues></_>
        <_>
          <internalNodes>
            0 -1 196 -6.5356222912669182e-03</internalNodes>
          <leafValues>
            2.2961078584194183e-01 -1.2049958854913712e-01</leafValues></_>
        <_>
          <internalNodes>
            0 -1 57 2.8785541653633118e-02</internalNodes>
          <leafValues>
            -1.1578796803951263e-01 2.6282399892807007e-01</leafValues></_>
        <_>
          <internalNodes>
            0 -1 828 1.7932116985321045e-02</internalNodes>
          <leafValues>
            -3.7198510020971298e-02 8.1612020730972290e-01</leafValues></_>
        <_>
          <internalNodes>
            0 -1 125 -1.2556938454508781e-02</internalNodes>
          <leafValues>
            2.2544535994529724e-01 -1.2046276032924652e-01</leafValues></_>
        <_>
          <internalNodes>
            0 -1 720 -9.3266431940719485e-04</internalNodes>
          <leafValues>
            -3.5022464394569397e-01 7.3181770741939545e-02</leafValues></_>
        <_>
          <internalNodes>
            0 -1 806 -1.8706234404817224e-03</internalNodes>
          <leafValues>
            4.0949100255966187e-01 -7.7301494777202606e-02</leafValues></_>
        <_>
          <internalNodes>
            0 -1 1142 1.4364203438162804e-02</internalNodes>
          <leafValues>
            4.2355261743068695e-02 -6.3417625427246094e-01</leafValues></_>
        <_>
          <internalNodes>
            0 -1 772 8.6747761815786362e-03</internalNodes>
          <leafValues>
            -6.9304302334785461e-02 4.1293337941169739e-01</leafValues></_>
        <_>
          <internalNodes>
            0 -1 30 -2.2543558478355408e-01</internalNodes>
          <leafValues>
            -7.2242814302444458e-01 4.7200109809637070e-02</leafValues></_>
        <_>
          <internalNodes>
            0 -1 56 -6.8724481388926506e-03</internalNodes>
          <leafValues>
            -2.6175913214683533e-01 1.0340869426727295e-01</leafValues></_>
        <_>
          <internalNodes>
            0 -1 895 -5.5153127759695053e-03</internalNodes>
          <leafValues>
            -6.4364218711853027e-01 3.8289070129394531e-02</leafValues></_>
        <_>
          <internalNodes>
            0 -1 266 -9.6461540088057518e-03</internalNodes>
          <leafValues>
            2.6198625564575195e-01 -1.0927905142307281e-01</leafValues></_>
        <_>
          <internalNodes>
            0 -1 748 1.2083643014193512e-05</internalNodes>
          <leafValues>
            -1.3625928759574890e-01 1.9734990596771240e-01</leafValues></_>
        <_>
          <internalNodes>
            0 -1 839 -3.8260146975517273e-03</internalNodes>
          <leafValues>
            -4.9380055069923401e-01 5.0998635590076447e-02</leafValues></_>
        <_>
          <internalNodes>
            0 -1 814 -1.6622439026832581e-02</internalNodes>
          <leafValues>
            3.9918163418769836e-01 -7.9018659889698029e-02</leafValues></_>
        <_>
          <internalNodes>
            0 -1 548 5.2280705422163010e-03</internalNodes>
          <leafValues>
            -1.1255587637424469e-01 2.5173842906951904e-01</leafValues></_>
        <_>
          <internalNodes>
            0 -1 214 -2.8002694307360798e-05</internalNodes>
          <leafValues>
            1.9589239358901978e-01 -1.4246347546577454e-01</leafValues></_>
        <_>
          <internalNodes>
            0 -1 410 -3.1296436209231615e-03</internalNodes>
          <leafValues>
            -5.2209132909774780e-01 5.8575443923473358e-02</leafValues></_>
        <_>
          <internalNodes>
            0 -1 282 -2.0118434913456440e-03</internalNodes>
          <leafValues>
            2.1609035134315491e-01 -1.3156443834304810e-01</leafValues></_>
        <_>
          <internalNodes>
            0 -1 791 7.1887814556248486e-05</internalNodes>
          <leafValues>
            -1.6064105927944183e-01 1.7749540507793427e-01</leafValues></_>
        <_>
          <internalNodes>
            0 -1 852 -1.1067676823586226e-03</internalNodes>
          <leafValues>
            -4.4402706623077393e-01 6.2900722026824951e-02</leafValues></_>
        <_>
          <internalNodes>
            0 -1 467 1.4458017423748970e-02</internalNodes>
          <leafValues>
            -7.2093680500984192e-02 3.9427778124809265e-01</leafValues></_>
        <_>
          <internalNodes>
            0 -1 90 4.4272383674979210e-03</internalNodes>
          <leafValues>
            -1.1735989898443222e-01 2.4076402187347412e-01</leafValues></_>
        <_>
          <internalNodes>
            0 -1 92 -3.6298192571848631e-03</internalNodes>
          <leafValues>
            2.2438418865203857e-01 -1.3750597834587097e-01</leafValues></_>
        <_>
          <internalNodes>
            0 -1 675 7.1325321914628148e-04</internalNodes>
          <leafValues>
            7.8152328729629517e-02 -3.9253190159797668e-01</leafValues></_>
        <_>
          <internalNodes>
            0 -1 120 2.4943803437054157e-03</internalNodes>
          <leafValues>
            -1.1746456474065781e-01 2.6894512772560120e-01</leafValues></_>
        <_>
          <internalNodes>
            0 -1 847 -1.0177430231124163e-03</internalNodes>
          <leafValues>
            -7.5904107093811035e-01 3.8505498319864273e-02</leafValues></_>
        <_>
          <internalNodes>
            0 -1 858 -2.7317586354911327e-03</internalNodes>
          <leafValues>
            1.4335104823112488e-01 -1.9007565081119537e-01</leafValues></_>
        <_>
          <internalNodes>
            0 -1 668 -4.8134944518096745e-04</internalNodes>
          <leafValues>
            1.6560590267181396e-01 -1.8539579212665558e-01</leafValues></_>
        <_>
          <internalNodes>
            0 -1 898 -9.1823646798729897e-03</internalNodes>
          <leafValues>
            3.0684933066368103e-01 -1.1132273823022842e-01</leafValues></_>
        <_>
          <internalNodes>
            0 -1 708 -5.7866389397531748e-04</internalNodes>
          <leafValues>
            -3.8613516092300415e-01 7.8928567469120026e-02</leafValues></_>
        <_>
          <internalNodes>
            0 -1 1018 1.1234492376388516e-05</internalNodes>
          <leafValues>
            -1.4419829845428467e-01 2.0539523661136627e-01</leafValues></_>
        <_>
          <internalNodes>
            0 -1 932 -8.7196857202798128e-04</internalNodes>
          <leafValues>
            -4.0253069996833801e-01 7.4495010077953339e-02</leafValues></_>
        <_>
          <internalNodes>
            0 -1 128 -9.1563791036605835e-02</internalNodes>
          <leafValues>
            -6.3041478395462036e-01 3.9624974131584167e-02</leafValues></_>
        <_>
          <internalNodes>
            0 -1 155 -1.1621266821748577e-05</internalNodes>
          <leafValues>
            1.6614580154418945e-01 -1.5953439474105835e-01</leafValues></_>
        <_>
          <internalNodes>
            0 -1 494 -4.3715424835681915e-03</internalNodes>
          <leafValues>
            2.8145971894264221e-01 -8.7079681456089020e-02</leafValues></_>
        <_>
          <internalNodes>
            0 -1 614 1.4894736930727959e-02</internalNodes>
          <leafValues>
            3.8427863270044327e-02 -7.1489524841308594e-01</leafValues></_>
        <_>
          <internalNodes>
            0 -1 149 2.4910035426728427e-04</internalNodes>
          <leafValues>
            -1.6325283050537109e-01 1.4658965170383453e-01</leafValues></_>
        <_>
          <internalNodes>
            0 -1 414 2.6325386017560959e-02</internalNodes>
          <leafValues>
            -8.2481138408184052e-02 3.2506868243217468e-01</leafValues></_>
        <_>
          <internalNodes>
            0 -1 366 -2.2655863314867020e-02</internalNodes>
          <leafValues>
            2.5613197684288025e-01 -1.1189196258783340e-01</leafValues></_>
        <_>
          <internalNodes>
            0 -1 445 9.4616338610649109e-03</internalNodes>
          <leafValues>
            -9.6139848232269287e-02 3.0041933059692383e-01</leafValues></_>
        <_>
          <internalNodes>
            0 -1 320 -1.6498286277055740e-02</internalNodes>
          <leafValues>
            2.2117355465888977e-01 -1.1780630052089691e-01</leafValues></_></weakClassifiers></_>
    <!-- stage 5 -->
    <_>
      <maxWeakCount>100</maxWeakCount>
      <stageThreshold>-1.5739762783050537e+00</stageThreshold>
      <weakClassifiers>
        <_>
          <internalNodes>
            0 -1 369 3.0255973339080811e-01</internalNodes>
          <leafValues>
            -4.9224612116813660e-01 -1.5984015539288521e-02</leafValues></_>
        <_>
          <internalNodes>
            0 -1 235 -2.3126216547098011e-05</internalNodes>
          <leafValues>
            1.3745804131031036e-01 -2.3476442694664001e-01</leafValues></_>
        <_>
          <internalNodes>
            0 -1 977 -1.8188644200563431e-02</internalNodes>
          <leafValues>
            2.5018015503883362e-01 -1.3187357783317566e-01</leafValues></_>
        <_>
          <internalNodes>
            0 -1 701 -2.6235880795866251e-04</internalNodes>
          <leafValues>
            -3.6258384585380554e-01 9.1902516782283783e-02</leafValues></_>
        <_>
          <internalNodes>
            0 -1 701 2.2786545741837472e-04</internalNodes>
          <leafValues>
            1.4526104927062988e-01 -3.7004563212394714e-01</leafValues></_>
        <_>
          <internalNodes>
            0 -1 451 -7.4208900332450867e-02</internalNodes>
          <leafValues>
            3.5309758782386780e-01 -1.0278585553169250e-01</leafValues></_>
        <_>
          <internalNodes>
            0 -1 868 -2.3174384608864784e-02</internalNodes>
          <leafValues>
            2.6268342137336731e-01 -1.2416442483663559e-01</leafValues></_>
        <_>
          <internalNodes>
            0 -1 35 -5.0543114542961121e-02</internalNodes>
          <leafValues>
            3.1890141963958740e-01 -7.5322426855564117e-02</leafValues></_>
        <_>
          <internalNodes>
            0 -1 987 1.3158904388546944e-02</internalNodes>
          <leafValues>
            -9.5851622521877289e-02 2.8120824694633484e-01</leafValues></_>
        <_>
          <internalNodes>
            0 -1 578 -5.3308665752410889e-02</internalNodes>
          <leafValues>
            2.8669098019599915e-01 -8.7884612381458282e-02</leafValues></_>
        <_>
          <internalNodes>
            0 -1 989 -9.7718462347984314e-03</internalNodes>
          <leafValues>
            2.2145433723926544e-01 -1.1643630266189575e-01</leafValues></_>
        <_>
          <internalNodes>
            0 -1 381 -4.8940483480691910e-02</internalNodes>
          <leafValues>
            4.4639506936073303e-01 -5.8765020221471786e-02</leafValues></_>
        <_>
          <internalNodes>
            0 -1 236 6.3905492424964905e-04</internalNodes>
          <leafValues>
            7.4989549815654755e-02 -3.0500596761703491e-01</leafValues></_>
        <_>
          <internalNodes>
            0 -1 251 -8.1223230808973312e-03</internalNodes>
          <leafValues>
            4.6959865093231201e-01 -3.7360046058893204e-02</leafValues></_>
        <_>
          <internalNodes>
            0 -1 948 9.7902901470661163e-03</internalNodes>
          <leafValues>
            -9.6527121961116791e-02 2.1719354391098022e-01</leafValues></_>
        <_>
          <internalNodes>
            0 -1 888 -2.3070941679179668e-03</internalNodes>
          <leafValues>
            -4.8526111245155334e-01 4.2114548385143280e-02</leafValues></_>
        <_>
          <internalNodes>
            0 -1 32 -1.3045636937022209e-02</internalNodes>
          <leafValues>
            2.9396173357963562e-01 -6.9211594760417938e-02</leafValues></_>
        <_>
          <internalNodes>
            0 -1 83 1.9004279747605324e-02</internalNodes>
          <leafValues>
            -6.2096819281578064e-02 3.4367316961288452e-01</leafValues></_>
        <_>
          <internalNodes>
            0 -1 99 -4.6040471643209457e-03</internalNodes>
          <leafValues>
            2.3268458247184753e-01 -9.3059875071048737e-02</leafValues></_>
        <_>
          <internalNodes>
            0 -1 1115 3.3228826941922307e-04</internalNodes>
          <leafValues>
            8.1309728324413300e-02 -2.7989661693572998e-01</leafValues></_>
        <_>
          <internalNodes>
            0 -1 1115 -4.7652435023337603e-04</internalNodes>
          <leafValues>
            -3.4780755639076233e-01 6.8985290825366974e-02</leafValues></_>
        <_>
          <internalNodes>
            0 -1 234 -1.7697053262963891e-03</internalNodes>
          <leafValues>
            -3.3157497644424438e-01 5.7811800390481949e-02</leafValues></_>
        <_>
          <internalNodes>
            0 -1 826 7.4097937904298306e-03</internalNodes>
          <leafValues>
            -7.0348143577575684e-02 2.8070288896560669e-01</leafValues></_>
        <_>
          <internalNodes>
            0 -1 834 -8.6630200967192650e-03</internalNodes>
          <leafValues>
            2.1247003972530365e-01 -9.1453269124031067e-02</leafValues></_>
        <_>
          <internalNodes>
            0 -1 1141 -1.4900388487149030e-04</internalNodes>
          <leafValues>
            -2.5604146718978882e-01 7.7772639691829681e-02</leafValues></_>
        <_>
          <internalNodes>
            0 -1 1114 -1.2379657709971070e-04</internalNodes>
          <leafValues>
            -2.3650829493999481e-01 9.7909629344940186e-02</leafValues></_>
        <_>
          <internalNodes>
            0 -1 667 -2.7620989829301834e-02</internalNodes>
          <leafValues>
            2.2447474300861359e-01 -8.3213753998279572e-02</leafValues></_>
        <_>
          <internalNodes>
            0 -1 571 5.7521816343069077e-02</internalNodes>
          <leafValues>
            -2.9588453471660614e-02 5.8136242628097534e-01</leafValues></_>
        <_>
          <internalNodes>
            0 -1 597 7.6980339363217354e-03</internalNodes>
          <leafValues>
            -4.5526094734668732e-02 4.1732537746429443e-01</leafValues></_>
        <_>
          <internalNodes>
            0 -1 1128 8.1437621265649796e-03</internalNodes>
          <leafValues>
            5.0612300634384155e-02 -3.8471025228500366e-01</leafValues></_>
        <_>
          <internalNodes>
            0 -1 603 -2.2742738947272301e-03</internalNodes>
          <leafValues>
            -4.0859600901603699e-01 3.8680203258991241e-02</leafValues></_>
        <_>
          <internalNodes>
            0 -1 657 -1.2666781432926655e-02</internalNodes>
          <leafValues>
            1.8739067018032074e-01 -9.9679946899414063e-02</leafValues></_>
        <_>
          <internalNodes>
            0 -1 1137 1.2193407201266382e-05</internalNodes>
          <leafValues>
            -1.3589550554752350e-01 1.3139182329177856e-01</leafValues></_>
        <_>
          <internalNodes>
            0 -1 1011 5.6973500177264214e-03</internalNodes>
          <leafValues>
            -7.7252008020877838e-02 2.9544553160667419e-01</leafValues></_>
        <_>
          <internalNodes>
            0 -1 949 -1.8248230218887329e-02</internalNodes>
          <leafValues>
            -6.5573030710220337e-01 3.1407818198204041e-02</leafValues></_>
        <_>
          <internalNodes>
            0 -1 285 -3.2493844628334045e-03</internalNodes>
          <leafValues>
            1.9117362797260284e-01 -9.9598094820976257e-02</leafValues></_>
        <_>
          <internalNodes>
            0 -1 887 -3.1087128445506096e-04</internalNodes>
          <leafValues>
            -2.8381338715553284e-01 6.7157492041587830e-02</leafValues></_>
        <_>
          <internalNodes>
            0 -1 979 -1.1454611922090407e-05</internalNodes>
          <leafValues>
            1.4395307004451752e-01 -1.1897722631692886e-01</leafValues></_>
        <_>
          <internalNodes>
            0 -1 1009 -3.7073937710374594e-03</internalNodes>
          <leafValues>
            1.9959449768066406e-01 -8.7544374167919159e-02</leafValues></_>
        <_>
          <internalNodes>
            0 -1 1089 -1.6039951879065484e-04</internalNodes>
          <leafValues>
            -2.0666572451591492e-01 8.3312243223190308e-02</leafValues></_>
        <_>
          <internalNodes>
            0 -1 127 -8.7629043264314532e-04</internalNodes>
          <leafValues>
            -3.1282514333724976e-01 5.3446803241968155e-02</leafValues></_>
        <_>
          <internalNodes>
            0 -1 809 -4.1026943363249302e-03</internalNodes>
          <leafValues>
            -6.0740947723388672e-01 2.2948574274778366e-02</leafValues></_>
        <_>
          <internalNodes>
            0 -1 1042 -1.3857959769666195e-02</internalNodes>
          <leafValues>
            -2.0941412448883057e-01 7.6950013637542725e-02</leafValues></_>
        <_>
          <internalNodes>
            0 -1 1123 -5.6174788624048233e-03</internalNodes>
          <leafValues>
            3.0347546935081482e-01 -5.8710653334856033e-02</leafValues></_>
        <_>
          <internalNodes>
            0 -1 789 -3.1774230301380157e-02</internalNodes>
          <leafValues>
            -5.3628563880920410e-01 3.2808884978294373e-02</leafValues></_>
        <_>
          <internalNodes>
            0 -1 517 -2.7721378952264786e-02</internalNodes>
          <leafValues>
            2.8326359391212463e-01 -5.9645459055900574e-02</leafValues></_>
        <_>
          <internalNodes>
            0 -1 174 -2.2667931392788887e-02</internalNodes>
          <leafValues>
            -2.6460108160972595e-01 6.4311720430850983e-02</leafValues></_>
        <_>
          <internalNodes>
            0 -1 387 -4.8728534020483494e-03</internalNodes>
          <leafValues>
            1.7132815718650818e-01 -9.9860325455665588e-02</leafValues></_>
        <_>
          <internalNodes>
            0 -1 669 -4.6240081428550184e-04</internalNodes>
          <leafValues>
            -2.3073814809322357e-01 7.8726388514041901e-02</leafValues></_>
        <_>
          <internalNodes>
            0 -1 342 -7.3769930750131607e-03</internalNodes>
          <leafValues>
            8.6007781326770782e-02 -1.9711202383041382e-01</leafValues></_>
        <_>
          <internalNodes>
            0 -1 294 6.9884811528027058e-03</internalNodes>
          <leafValues>
            -7.0271082222461700e-02 2.6442027091979980e-01</leafValues></_>
        <_>
          <internalNodes>
            0 -1 295 -4.5847552828490734e-03</internalNodes>
          <leafValues>
            1.6408576071262360e-01 -1.0512696951627731e-01</leafValues></_>
        <_>
          <internalNodes>
            0 -1 838 4.9545201472938061e-03</internalNodes>
          <leafValues>
            -5.0298817455768585e-02 3.4375339746475220e-01</leafValues></_>
        <_>
          <internalNodes>
            0 -1 379 3.7903136014938354e-01</internalNodes>
          <leafValues>
            -3.0165385454893112e-02 5.8866345882415771e-01</leafValues></_>
        <_>
          <internalNodes>
            0 -1 526 -1.9350968301296234e-02</internalNodes>
          <leafValues>
            4.3728765845298767e-01 -3.5478055477142334e-02</leafValues></_>
        <_>
          <internalNodes>
            0 -1 238 6.7865906748920679e-04</internalNodes>
          <leafValues>
            4.5065216720104218e-02 -3.5682442784309387e-01</leafValues></_>
        <_>
          <internalNodes>
            0 -1 882 -6.6392086446285248e-03</internalNodes>
          <leafValues>
            3.2348036766052246e-01 -5.4022341966629028e-02</leafValues></_>
        <_>
          <internalNodes>
            0 -1 1105 5.4806366097182035e-04</internalNodes>
          <leafValues>
            6.7631043493747711e-02 -2.5374481081962585e-01</leafValues></_>
        <_>
          <internalNodes>
            0 -1 424 -1.6797423362731934e-02</internalNodes>
          <leafValues>
            1.9007022678852081e-01 -8.8966771960258484e-02</leafValues></_>
        <_>
          <internalNodes>
            0 -1 0 -7.0647400571033359e-04</internalNodes>
          <leafValues>
            -3.0041322112083435e-01 5.6359957903623581e-02</leafValues></_>
        <_>
          <internalNodes>
            0 -1 801 -8.8562548626214266e-04</internalNodes>
          <leafValues>
            1.2983691692352295e-01 -1.2853126227855682e-01</leafValues></_>
        <_>
          <internalNodes>
            0 -1 268 3.3214907161891460e-03</internalNodes>
          <leafValues>
            -7.6155848801136017e-02 2.4323473870754242e-01</leafValues></_>
        <_>
          <internalNodes>
            0 -1 46 -1.0565380752086639e-01</internalNodes>
          <leafValues>
            1.8335321545600891e-01 -9.3353517353534698e-02</leafValues></_>
        <_>
          <internalNodes>
            0 -1 0 7.4559624772518873e-04</internalNodes>
          <leafValues>
            5.6109782308340073e-02 -2.9774025082588196e-01</leafValues></_>
        <_>
          <internalNodes>
            0 -1 98 3.6314688622951508e-03</internalNodes>
          <leafValues>
            4.8588044941425323e-02 -3.1668052077293396e-01</leafValues></_>
        <_>
          <internalNodes>
            0 -1 1140 -3.3111567609012127e-04</internalNodes>
          <leafValues>
            -2.8758674860000610e-01 5.4284900426864624e-02</leafValues></_>
        <_>
          <internalNodes>
            0 -1 253 -4.5064043998718262e-01</internalNodes>
          <leafValues>
            -7.0973116159439087e-01 2.1935097873210907e-02</leafValues></_>
        <_>
          <internalNodes>
            0 -1 1054 -2.7873844373971224e-05</internalNodes>
          <leafValues>
            1.2478111684322357e-01 -1.2293384224176407e-01</leafValues></_>
        <_>
          <internalNodes>
            0 -1 922 2.7909278869628906e-03</internalNodes>
          <leafValues>
            -7.1550443768501282e-02 2.1867005527019501e-01</leafValues></_>
        <_>
          <internalNodes>
            0 -1 1056 -1.3198659871704876e-05</internalNodes>
          <leafValues>
            1.2350197136402130e-01 -1.2682133913040161e-01</leafValues></_>
        <_>
          <internalNodes>
            0 -1 866 -3.6456917878240347e-03</internalNodes>
          <leafValues>
            1.3022108376026154e-01 -1.3666388392448425e-01</leafValues></_>
        <_>
          <internalNodes>
            0 -1 1104 -8.1391929415985942e-04</internalNodes>
          <leafValues>
            2.0132219791412354e-01 -9.0645991265773773e-02</leafValues></_>
        <_>
          <internalNodes>
            0 -1 827 -5.4472719784826040e-04</internalNodes>
          <leafValues>
            -4.0956684947013855e-01 3.7465129047632217e-02</leafValues></_>
        <_>
          <internalNodes>
            0 -1 173 4.2263042181730270e-02</internalNodes>
          <leafValues>
            -2.6347139850258827e-02 5.9192651510238647e-01</leafValues></_>
        <_>
          <internalNodes>
            0 -1 559 1.1061145414714701e-05</internalNodes>
          <leafValues>
            -1.0062049329280853e-01 1.4678312838077545e-01</leafValues></_>
        <_>
          <internalNodes>
            0 -1 930 2.8244357963558286e-05</internalNodes>
          <leafValues>
            -1.4066073298454285e-01 1.1117564886808395e-01</leafValues></_>
        <_>
          <internalNodes>
            0 -1 542 -4.0218448266386986e-03</internalNodes>
          <leafValues>
            -8.0961698293685913e-01 1.5444160439074039e-02</leafValues></_>
        <_>
          <internalNodes>
            0 -1 533 -4.4865261763334274e-02</internalNodes>
          <leafValues>
            2.1318233013153076e-01 -7.1700163185596466e-02</leafValues></_>
        <_>
          <internalNodes>
            0 -1 765 -6.1663081869482994e-03</internalNodes>
          <leafValues>
            -3.9479258656501770e-01 3.8329888135194778e-02</leafValues></_>
        <_>
          <internalNodes>
            0 -1 611 1.9887331873178482e-02</internalNodes>
          <leafValues>
            -6.1588294804096222e-02 2.3477749526500702e-01</leafValues></_>
        <_>
          <internalNodes>
            0 -1 794 -1.6250114887952805e-02</internalNodes>
          <leafValues>
            -7.5551003217697144e-01 2.3185390979051590e-02</leafValues></_>
        <_>
          <internalNodes>
            0 -1 456 -3.3125220215879381e-04</internalNodes>
          <leafValues>
            -2.4860472977161407e-01 5.1995068788528442e-02</leafValues></_>
        <_>
          <internalNodes>
            0 -1 846 2.6728971861302853e-03</internalNodes>
          <leafValues>
            -6.8065688014030457e-02 2.3643366992473602e-01</leafValues></_>
        <_>
          <internalNodes>
            0 -1 884 -2.5257701054215431e-05</internalNodes>
          <leafValues>
            1.4544530212879181e-01 -1.1058732867240906e-01</leafValues></_>
        <_>
          <internalNodes>
            0 -1 885 -2.8322361686150543e-05</internalNodes>
          <leafValues>
            1.4502355456352234e-01 -1.0546064376831055e-01</leafValues></_>
        <_>
          <internalNodes>
            0 -1 885 2.8231608666828834e-05</internalNodes>
          <leafValues>
            -9.6673391759395599e-02 1.5519784390926361e-01</leafValues></_>
        <_>
          <internalNodes>
            0 -1 885 9.6661248244345188e-04</internalNodes>
          <leafValues>
            2.6045102626085281e-02 -6.0582536458969116e-01</leafValues></_>
        <_>
          <internalNodes>
            0 -1 9 1.1905807256698608e-01</internalNodes>
          <leafValues>
            2.8884226456284523e-02 -4.3744373321533203e-01</leafValues></_>
        <_>
          <internalNodes>
            0 -1 218 -4.3210998177528381e-02</internalNodes>
          <leafValues>
            1.2701830267906189e-01 -1.1813745647668839e-01</leafValues></_>
        <_>
          <internalNodes>
            0 -1 129 -2.7672853320837021e-03</internalNodes>
          <leafValues>
            1.5114206075668335e-01 -1.2070931494235992e-01</leafValues></_>
        <_>
          <internalNodes>
            0 -1 773 -2.6772522926330566e-01</internalNodes>
          <leafValues>
            -4.3080323934555054e-01 3.4578621387481689e-02</leafValues></_>
        <_>
          <internalNodes>
            0 -1 919 8.3057617302983999e-04</internalNodes>
          <leafValues>
            3.0667480081319809e-02 -4.6276146173477173e-01</leafValues></_>
        <_>
          <internalNodes>
            0 -1 1134 -9.0704148169606924e-04</internalNodes>
          <leafValues>
            -4.3438175320625305e-01 3.0858373269438744e-02</leafValues></_>
        <_>
          <internalNodes>
            0 -1 1041 5.5785216391086578e-03</internalNodes>
          <leafValues>
            -8.2968443632125854e-02 1.9780524075031281e-01</leafValues></_>
        <_>
          <internalNodes>
            0 -1 1063 5.6194681674242020e-03</internalNodes>
          <leafValues>
            -8.3383239805698395e-02 1.8237732350826263e-01</leafValues></_>
        <_>
          <internalNodes>
            0 -1 861 -2.3126216547098011e-05</internalNodes>
          <leafValues>
            1.3558518886566162e-01 -1.0885355621576309e-01</leafValues></_>
        <_>
          <internalNodes>
            0 -1 20 -5.9371748939156532e-03</internalNodes>
          <leafValues>
            -4.6106997132301331e-01 3.0933473259210587e-02</leafValues></_>
        <_>
          <internalNodes>
            0 -1 189 8.5709840059280396e-03</internalNodes>
          <leafValues>
            -7.1196779608726501e-02 1.9648092985153198e-01</leafValues></_>
        <_>
          <internalNodes>
            0 -1 123 -9.1252438724040985e-03</internalNodes>
          <leafValues>
            1.9879582524299622e-01 -7.0949316024780273e-02</leafValues></_>
        <_>
          <internalNodes>
            0 -1 113 1.0124385356903076e-02</internalNodes>
          <leafValues>
            3.4371148794889450e-02 -4.7239112854003906e-01</leafValues></_></weakClassifiers></_>
    <!-- stage 6 -->
    <_>
      <maxWeakCount>100</maxWeakCount>
      <stageThreshold>-1.8137016296386719e+00</stageThreshold>
      <weakClassifiers>
        <_>
          <internalNodes>
            0 -1 51 3.5842710733413696e-01</internalNodes>
          <leafValues>
            -4.8534634709358215e-01 1.2433154881000519e-01</leafValues></_>
        <_>
          <internalNodes>
            0 -1 534 -1.8093558028340340e-02</internalNodes>
          <leafValues>
            2.6704624295234680e-01 -1.8726299703121185e-01</leafValues></_>
        <_>
          <internalNodes>
            0 -1 116 -7.7897727489471436e-02</internalNodes>
          <leafValues>
            -3.6914870142936707e-01 1.0455241799354553e-01</leafValues></_>
        <_>
          <internalNodes>
            0 -1 356 -6.3501922413706779e-03</internalNodes>
          <leafValues>
            3.0265447497367859e-01 -1.1651343107223511e-01</leafValues></_>
        <_>
          <internalNodes>
            0 -1 138 2.6203168556094170e-02</internalNodes>
          <leafValues>
            1.8011654913425446e-01 -2.6946863532066345e-01</leafValues></_>
        <_>
          <internalNodes>
            0 -1 358 -6.1162672936916351e-03</internalNodes>
          <leafValues>
            2.1860808134078979e-01 -1.7147712409496307e-01</leafValues></_>
        <_>
          <internalNodes>
            0 -1 711 -5.1110517233610153e-03</internalNodes>
          <leafValues>
            2.7630761265754700e-01 -8.7696768343448639e-02</leafValues></_>
        <_>
          <internalNodes>
            0 -1 465 2.5366466492414474e-02</internalNodes>
          <leafValues>
            -9.3177497386932373e-02 3.4696581959724426e-01</leafValues></_>
        <_>
          <internalNodes>
            0 -1 495 -4.3032709509134293e-03</internalNodes>
          <leafValues>
            2.6827523112297058e-01 -1.2016903609037399e-01</leafValues></_>
        <_>
          <internalNodes>
            0 -1 326 -1.1566321365535259e-02</internalNodes>
          <leafValues>
            2.2162644565105438e-01 -1.1999418586492538e-01</leafValues></_>
        <_>
          <internalNodes>
            0 -1 211 -1.1644169688224792e-02</internalNodes>
          <leafValues>
            3.6453580856323242e-01 -6.7303232848644257e-02</leafValues></_>
        <_>
          <internalNodes>
            0 -1 91 -2.5000972673296928e-02</internalNodes>
          <leafValues>
            4.3269804120063782e-01 -4.6239569783210754e-02</leafValues></_>
        <_>
          <internalNodes>
            0 -1 696 -1.5161612536758184e-03</internalNodes>
          <leafValues>
            2.3991341888904572e-01 -9.4771690666675568e-02</leafValues></_>
        <_>
          <internalNodes>
            0 -1 217 -7.3716170154511929e-03</internalNodes>
          <leafValues>
            2.7587926387786865e-01 -8.0315254628658295e-02</leafValues></_>
        <_>
          <internalNodes>
            0 -1 973 1.0672796051949263e-03</internalNodes>
          <leafValues>
            -1.7774210870265961e-01 1.3011501729488373e-01</leafValues></_>
        <_>
          <internalNodes>
            0 -1 624 -6.9414470344781876e-03</internalNodes>
          <leafValues>
            1.6039359569549561e-01 -1.2109077721834183e-01</leafValues></_>
        <_>
          <internalNodes>
            0 -1 564 -8.6216619238257408e-03</internalNodes>
          <leafValues>
            -5.3881245851516724e-01 4.0835905820131302e-02</leafValues></_>
        <_>
          <internalNodes>
            0 -1 998 -4.3453983962535858e-03</internalNodes>
          <leafValues>
            1.8771107494831085e-01 -1.1750341206789017e-01</leafValues></_>
        <_>
          <internalNodes>
            0 -1 849 -4.4137198710814118e-04</internalNodes>
          <leafValues>
            -4.0921008586883545e-01 4.6945895999670029e-02</leafValues></_>
        <_>
          <internalNodes>
            0 -1 1005 -2.7033798396587372e-03</internalNodes>
          <leafValues>
            2.2337628901004791e-01 -9.5241673290729523e-02</leafValues></_>
        <_>
          <internalNodes>
            0 -1 141 -1.2782929465174675e-02</internalNodes>
          <leafValues>
            -5.2389574050903320e-01 3.2220128923654556e-02</leafValues></_>
        <_>
          <internalNodes>
            0 -1 525 -1.7533011734485626e-02</internalNodes>
          <leafValues>
            4.7798129916191101e-01 -4.0725875645875931e-02</leafValues></_>
        <_>
          <internalNodes>
            0 -1 482 -1.8957281485199928e-02</internalNodes>
          <leafValues>
            2.5485605001449585e-01 -6.9972924888134003e-02</leafValues></_>
        <_>
          <internalNodes>
            0 -1 1057 -1.1088260449469090e-02</internalNodes>
          <leafValues>
            2.6825618743896484e-01 -7.0195876061916351e-02</leafValues></_>
        <_>
          <internalNodes>
            0 -1 1140 1.2586686352733523e-04</internalNodes>
          <leafValues>
            7.8102521598339081e-02 -2.2730109095573425e-01</leafValues></_>
        <_>
          <internalNodes>
            0 -1 599 1.9753773231059313e-03</internalNodes>
          <leafValues>
            -1.2412067502737045e-01 1.4016330242156982e-01</leafValues></_>
        <_>
          <internalNodes>
            0 -1 158 -2.4409589968854561e-05</internalNodes>
          <leafValues>
            1.1267691850662231e-01 -1.5781363844871521e-01</leafValues></_>
        <_>
          <internalNodes>
            0 -1 108 -2.8831835836172104e-02</internalNodes>
          <leafValues>
            -4.5857763290405273e-01 3.5019006580114365e-02</leafValues></_>
        <_>
          <internalNodes>
            0 -1 608 7.2505087591707706e-03</internalNodes>
          <leafValues>
            -1.0219379514455795e-01 1.7435315251350403e-01</leafValues></_>
        <_>
          <internalNodes>
            0 -1 420 -5.1276554586365819e-04</internalNodes>
          <leafValues>
            1.3751809298992157e-01 -1.5860183537006378e-01</leafValues></_>
        <_>
          <internalNodes>
            0 -1 64 -8.9919213205575943e-03</internalNodes>
          <leafValues>
            2.0462375879287720e-01 -7.6927348971366882e-02</leafValues></_>
        <_>
          <internalNodes>
            0 -1 42 6.9810319691896439e-03</internalNodes>
          <leafValues>
            -9.6170425415039063e-02 1.8348623812198639e-01</leafValues></_>
        <_>
          <internalNodes>
            0 -1 702 2.8493235004134476e-04</internalNodes>
          <leafValues>
            6.0203198343515396e-02 -2.8473871946334839e-01</leafValues></_>
        <_>
          <internalNodes>
            0 -1 505 5.4502584971487522e-03</internalNodes>
          <leafValues>
            -5.8536890894174576e-02 2.9580080509185791e-01</leafValues></_>
        <_>
          <internalNodes>
            0 -1 702 -2.2393773542717099e-04</internalNodes>
          <leafValues>
            -2.8514000773429871e-01 6.5960206091403961e-02</leafValues></_>
        <_>
          <internalNodes>
            0 -1 512 1.7279481980949640e-03</internalNodes>
          <leafValues>
            -1.1725231260061264e-01 1.3422441482543945e-01</leafValues></_>
        <_>
          <internalNodes>
            0 -1 287 5.9244204312562943e-03</internalNodes>
          <leafValues>
            -7.4685566127300262e-02 1.9732396304607391e-01</leafValues></_>
        <_>
          <internalNodes>
            0 -1 1116 -7.9618897289037704e-03</internalNodes>
          <leafValues>
            2.5839850306510925e-01 -5.5556382983922958e-02</leafValues></_>
        <_>
          <internalNodes>
            0 -1 754 1.2109579984098673e-04</internalNodes>
          <leafValues>
            7.1665935218334198e-02 -2.1581625938415527e-01</leafValues></_>
        <_>
          <internalNodes>
            0 -1 737 3.8329535163938999e-04</internalNodes>
          <leafValues>
            5.5810991674661636e-02 -2.6493662595748901e-01</leafValues></_>
        <_>
          <internalNodes>
            0 -1 992 -5.6090811267495155e-03</internalNodes>
          <leafValues>
            2.1887567639350891e-01 -6.8470872938632965e-02</leafValues></_>
        <_>
          <internalNodes>
            0 -1 1100 1.5103589976206422e-04</internalNodes>
          <leafValues>
            9.4054587185382843e-02 -1.7388975620269775e-01</leafValues></_>
        <_>
          <internalNodes>
            0 -1 875 -4.5224145287647843e-04</internalNodes>
          <leafValues>
            1.1645390093326569e-01 -1.2856566905975342e-01</leafValues></_>
        <_>
          <internalNodes>
            0 -1 738 2.9396757483482361e-02</internalNodes>
          <leafValues>
            -3.0679967254400253e-02 5.4935985803604126e-01</leafValues></_>
        <_>
          <internalNodes>
            0 -1 925 1.2281216913834214e-04</internalNodes>
          <leafValues>
            8.6221933364868164e-02 -1.7298762500286102e-01</leafValues></_>
        <_>
          <internalNodes>
            0 -1 804 -2.1259891800582409e-03</internalNodes>
          <leafValues>
            1.4083294570446014e-01 -1.0769179463386536e-01</leafValues></_>
        <_>
          <internalNodes>
            0 -1 489 -5.8584390208125114e-03</internalNodes>
          <leafValues>
            1.9198608398437500e-01 -7.5388416647911072e-02</leafValues></_>
        <_>
          <internalNodes>
            0 -1 222 9.3745049089193344e-03</internalNodes>
          <leafValues>
            -7.1932032704353333e-02 2.2043277323246002e-01</leafValues></_>
        <_>
          <internalNodes>
            0 -1 94 -5.0413388758897781e-02</internalNodes>
          <leafValues>
            -3.7392172217369080e-01 4.7751326113939285e-02</leafValues></_>
        <_>
          <internalNodes>
            0 -1 1017 -3.7768101319670677e-03</internalNodes>
          <leafValues>
            1.9476692378520966e-01 -8.0831900238990784e-02</leafValues></_>
        <_>
          <internalNodes>
            0 -1 1014 1.9775659311562777e-03</internalNodes>
          <leafValues>
            -8.3731763064861298e-02 1.8440160155296326e-01</leafValues></_>
        <_>
          <internalNodes>
            0 -1 927 -3.7316366797313094e-04</internalNodes>
          <leafValues>
            -2.7240476012229919e-01 5.9864323586225510e-02</leafValues></_>
        <_>
          <internalNodes>
            0 -1 7 -3.3611897379159927e-02</internalNodes>
          <leafValues>
            3.0848318338394165e-01 -5.1745701581239700e-02</leafValues></_>
        <_>
          <internalNodes>
            0 -1 111 -5.0184770952910185e-04</internalNodes>
          <leafValues>
            1.0657287389039993e-01 -1.4182803034782410e-01</leafValues></_>
        <_>
          <internalNodes>
            0 -1 1001 1.9164994359016418e-02</internalNodes>
          <leafValues>
            -3.8800813257694244e-02 4.1472670435905457e-01</leafValues></_>
        <_>
          <internalNodes>
            0 -1 48 -2.0658519119024277e-02</internalNodes>
          <leafValues>
            2.1046741306781769e-01 -6.9978721439838409e-02</leafValues></_>
        <_>
          <internalNodes>
            0 -1 673 -1.1650259839370847e-03</internalNodes>
          <leafValues>
            1.3708713650703430e-01 -1.1786143481731415e-01</leafValues></_>
        <_>
          <internalNodes>
            0 -1 8 -6.2525033950805664e-02</internalNodes>
          <leafValues>
            -2.7039161324501038e-01 5.7529773563146591e-02</leafValues></_>
        <_>
          <internalNodes>
            0 -1 198 -3.1096957623958588e-02</internalNodes>
          <leafValues>
            3.3477592468261719e-01 -4.9751993268728256e-02</leafValues></_>
        <_>
          <internalNodes>
            0 -1 721 -3.1788353226147592e-04</internalNodes>
          <leafValues>
            -2.3565383255481720e-01 7.2510488331317902e-02</leafValues></_>
        <_>
          <internalNodes>
            0 -1 281 -3.1552944332361221e-02</internalNodes>
          <leafValues>
            3.4739714860916138e-01 -5.1944900304079056e-02</leafValues></_>
        <_>
          <internalNodes>
            0 -1 822 -5.2235067414585501e-05</internalNodes>
          <leafValues>
            1.2011196464300156e-01 -1.3394460082054138e-01</leafValues></_>
        <_>
          <internalNodes>
            0 -1 69 3.9755798876285553e-02</internalNodes>
          <leafValues>
            -2.7297064661979675e-02 6.6606491804122925e-01</leafValues></_>
        <_>
          <internalNodes>
            0 -1 1114 2.8159827343188226e-04</internalNodes>
          <leafValues>
            6.7605063319206238e-02 -2.4662540853023529e-01</leafValues></_>
        <_>
          <internalNodes>
            0 -1 725 -1.7562657594680786e-03</internalNodes>
          <leafValues>
            1.4977823197841644e-01 -1.0294481366872787e-01</leafValues></_>
        <_>
          <internalNodes>
            0 -1 1113 1.1147139048262034e-05</internalNodes>
          <leafValues>
            -1.1352222412824631e-01 1.2642884254455566e-01</leafValues></_>
        <_>
          <internalNodes>
            0 -1 538 -1.9025821238756180e-03</internalNodes>
          <leafValues>
            1.3015192747116089e-01 -1.0417658090591431e-01</leafValues></_>
        <_>
          <internalNodes>
            0 -1 897 -5.8666933327913284e-03</internalNodes>
          <leafValues>
            1.5713234245777130e-01 -9.4817459583282471e-02</leafValues></_>
        <_>
          <internalNodes>
            0 -1 892 1.2050407240167260e-03</internalNodes>
          <leafValues>
            1.0204804688692093e-01 -1.4373774826526642e-01</leafValues></_>
        <_>
          <internalNodes>
            0 -1 622 2.5152079761028290e-02</internalNodes>
          <leafValues>
            -4.9937769770622253e-02 3.1015190482139587e-01</leafValues></_>
        <_>
          <internalNodes>
            0 -1 946 -2.5699329562485218e-03</internalNodes>
          <leafValues>
            -5.3303152322769165e-01 3.0100161209702492e-02</leafValues></_>
        <_>
          <internalNodes>
            0 -1 717 -2.4155015125870705e-04</internalNodes>
          <leafValues>
            -2.0629014074802399e-01 6.6629290580749512e-02</leafValues></_>
        <_>
          <internalNodes>
            0 -1 331 -4.9446327611804008e-03</internalNodes>
          <leafValues>
            1.6670604050159454e-01 -9.1937169432640076e-02</leafValues></_>
        <_>
          <internalNodes>
            0 -1 891 -6.5377550199627876e-03</internalNodes>
          <leafValues>
            1.9567741453647614e-01 -6.5831914544105530e-02</leafValues></_>
        <_>
          <internalNodes>
            0 -1 853 -5.4861884564161301e-04</internalNodes>
          <leafValues>
            1.0954796522855759e-01 -1.2480562180280685e-01</leafValues></_>
        <_>
          <internalNodes>
            0 -1 843 2.6137428358197212e-02</internalNodes>
          <leafValues>
            -1.5420415438711643e-02 8.3881950378417969e-01</leafValues></_>
        <_>
          <internalNodes>
            0 -1 426 7.4397414922714233e-02</internalNodes>
          <leafValues>
            -1.3236298225820065e-02 7.5872755050659180e-01</leafValues></_>
        <_>
          <internalNodes>
            0 -1 469 -8.2257594913244247e-03</internalNodes>
          <leafValues>
            -3.7609806656837463e-01 4.5806128531694412e-02</leafValues></_>
        <_>
          <internalNodes>
            0 -1 75 8.5510127246379852e-03</internalNodes>
          <leafValues>
            -3.1589541584253311e-02 4.5155099034309387e-01</leafValues></_>
        <_>
          <internalNodes>
            0 -1 460 7.1052543353289366e-04</internalNodes>
          <leafValues>
            3.8003794848918915e-02 -3.7714257836341858e-01</leafValues></_>
        <_>
          <internalNodes>
            0 -1 298 2.8542622923851013e-02</internalNodes>
          <leafValues>
            5.4953586310148239e-02 -2.4197956919670105e-01</leafValues></_>
        <_>
          <internalNodes>
            0 -1 151 -3.0033886432647705e-03</internalNodes>
          <leafValues>
            1.5299946069717407e-01 -9.7237050533294678e-02</leafValues></_>
        <_>
          <internalNodes>
            0 -1 508 -9.1620447346940637e-04</internalNodes>
          <leafValues>
            2.0358127355575562e-01 -7.2408221662044525e-02</leafValues></_>
        <_>
          <internalNodes>
            0 -1 1085 -1.1137194931507111e-02</internalNodes>
          <leafValues>
            -5.0749069452285767e-01 3.1616531312465668e-02</leafValues></_>
        <_>
          <internalNodes>
            0 -1 656 -3.4869434311985970e-03</internalNodes>
          <leafValues>
            2.2361232340335846e-01 -6.2133714556694031e-02</leafValues></_>
        <_>
          <internalNodes>
            0 -1 715 -9.3030364951118827e-04</internalNodes>
          <leafValues>
            -3.4014791250228882e-01 4.0424223989248276e-02</leafValues></_>
        <_>
          <internalNodes>
            0 -1 478 2.7916247025132179e-02</internalNodes>
          <leafValues>
            -2.0162576809525490e-02 8.2213085889816284e-01</leafValues></_>
        <_>
          <internalNodes>
            0 -1 436 -1.5139213064685464e-04</internalNodes>
          <leafValues>
            8.1332542002201080e-02 -1.6851931810379028e-01</leafValues></_>
        <_>
          <internalNodes>
            0 -1 279 1.4404258131980896e-01</internalNodes>
          <leafValues>
            -4.5066371560096741e-02 3.0951756238937378e-01</leafValues></_>
        <_>
          <internalNodes>
            0 -1 640 3.0512386001646519e-03</internalNodes>
          <leafValues>
            -7.6514154672622681e-02 2.2421687841415405e-01</leafValues></_>
        <_>
          <internalNodes>
            0 -1 753 -4.4256658293306828e-04</internalNodes>
          <leafValues>
            -3.4123972058296204e-01 3.8562346249818802e-02</leafValues></_>
        <_>
          <internalNodes>
            0 -1 1036 -5.4480209946632385e-03</internalNodes>
          <leafValues>
            1.2702728807926178e-01 -1.0343390703201294e-01</leafValues></_>
        <_>
          <internalNodes>
            0 -1 1076 -6.7996489815413952e-04</internalNodes>
          <leafValues>
            1.2201381474733353e-01 -1.2053668498992920e-01</leafValues></_>
        <_>
          <internalNodes>
            0 -1 960 1.2617319589480758e-03</internalNodes>
          <leafValues>
            2.5166871026158333e-02 -5.2094352245330811e-01</leafValues></_>
        <_>
          <internalNodes>
            0 -1 193 -6.0431687161326408e-03</internalNodes>
          <leafValues>
            2.4256537854671478e-01 -5.6231845170259476e-02</leafValues></_>
        <_>
          <internalNodes>
            0 -1 990 -2.3337770835496485e-04</internalNodes>
          <leafValues>
            1.3829627633094788e-01 -1.0006532073020935e-01</leafValues></_>
        <_>
          <internalNodes>
            0 -1 1119 4.9836398102343082e-04</internalNodes>
          <leafValues>
            7.0124156773090363e-02 -2.2697925567626953e-01</leafValues></_>
        <_>
          <internalNodes>
            0 -1 519 -5.6580724194645882e-03</internalNodes>
          <leafValues>
            -2.1137730777263641e-01 6.3834466040134430e-02</leafValues></_>
        <_>
          <internalNodes>
            0 -1 310 -8.6660668253898621e-02</internalNodes>
          <leafValues>
            2.1022646129131317e-01 -8.0188103020191193e-02</leafValues></_>
        <_>
          <internalNodes>
            0 -1 368 3.9833396673202515e-02</internalNodes>
          <leafValues>
            -7.2151049971580505e-02 2.2891761362552643e-01</leafValues></_></weakClassifiers></_>
    <!-- stage 7 -->
    <_>
      <maxWeakCount>100</maxWeakCount>
      <stageThreshold>-1.6849470138549805e+00</stageThreshold>
      <weakClassifiers>
        <_>
          <internalNodes>
            0 -1 347 -1.3825018703937531e-01</internalNodes>
          <leafValues>
            -4.5712128281593323e-02 -5.6039369106292725e-01</leafValues></_>
        <_>
          <internalNodes>
            0 -1 644 9.2946132645010948e-04</internalNodes>
          <leafValues>
            -1.7754781246185303e-01 2.3836836218833923e-01</leafValues></_>
        <_>
          <internalNodes>
            0 -1 529 -8.5064142942428589e-02</internalNodes>
          <leafValues>
            4.8731109499931335e-01 -7.1121498942375183e-02</leafValues></_>
        <_>
          <internalNodes>
            0 -1 530 -8.8941669091582298e-03</internalNodes>
          <leafValues>
            3.7068068981170654e-01 -7.0156067609786987e-02</leafValues></_>
        <_>
          <internalNodes>
            0 -1 573 -5.6231343187391758e-03</internalNodes>
          <leafValues>
            2.8112766146659851e-01 -9.6200503408908844e-02</leafValues></_>
        <_>
          <internalNodes>
            0 -1 522 4.1049301624298096e-02</internalNodes>
          <leafValues>
            -6.3869677484035492e-02 3.7422525882720947e-01</leafValues></_>
        <_>
          <internalNodes>
            0 -1 1007 -1.0640889406204224e-02</internalNodes>
          <leafValues>
            3.0823931097984314e-01 -7.8231342136859894e-02</leafValues></_>
        <_>
          <internalNodes>
            0 -1 554 -6.6850814037024975e-03</internalNodes>
          <leafValues>
            -2.6269385218620300e-01 8.3592325448989868e-02</leafValues></_>
        <_>
          <internalNodes>
            0 -1 507 1.3622859492897987e-02</internalNodes>
          <leafValues>
            8.2937993109226227e-02 -3.3110401034355164e-01</leafValues></_>
        <_>
          <internalNodes>
            0 -1 404 -4.4732172973453999e-03</internalNodes>
          <leafValues>
            3.1046360731124878e-01 -7.2920344769954681e-02</leafValues></_>
        <_>
          <internalNodes>
            0 -1 499 1.1045816354453564e-03</internalNodes>
          <leafValues>
            -9.1589808464050293e-02 2.5540846586227417e-01</leafValues></_>
        <_>
          <internalNodes>
            0 -1 104 -6.3886735588312149e-03</internalNodes>
          <leafValues>
            2.3902811110019684e-01 -7.6613657176494598e-02</leafValues></_>
        <_>
          <internalNodes>
            0 -1 931 -1.6028233221732080e-04</internalNodes>
          <leafValues>
            -2.5054973363876343e-01 8.7368234992027283e-02</leafValues></_>
        <_>
          <internalNodes>
            0 -1 1032 -2.4469051510095596e-02</internalNodes>
          <leafValues>
            3.7809988856315613e-01 -6.8722888827323914e-02</leafValues></_>
        <_>
          <internalNodes>
            0 -1 1120 -7.0833591744303703e-03</internalNodes>
          <leafValues>
            3.8194411993026733e-01 -4.0987379848957062e-02</leafValues></_>
        <_>
          <internalNodes>
            0 -1 431 6.6642075777053833e-02</internalNodes>
          <leafValues>
            -5.0478961318731308e-02 3.9554223418235779e-01</leafValues></_>
        <_>
          <internalNodes>
            0 -1 336 -8.0589801073074341e-03</internalNodes>
          <leafValues>
            2.4952167272567749e-01 -8.6119115352630615e-02</leafValues></_>
        <_>
          <internalNodes>
            0 -1 271 -5.5599915795028210e-03</internalNodes>
          <leafValues>
            1.5683865547180176e-01 -1.2273371219635010e-01</leafValues></_>
        <_>
          <internalNodes>
            0 -1 678 -2.2652414627373219e-03</internalNodes>
          <leafValues>
            1.8756024539470673e-01 -9.5110408961772919e-02</leafValues></_>
        <_>
          <internalNodes>
            0 -1 34 -7.5278460979461670e-02</internalNodes>
          <leafValues>
            3.7105002999305725e-01 -3.9483778178691864e-02</leafValues></_>
        <_>
          <internalNodes>
            0 -1 675 -5.7762209326028824e-04</internalNodes>
          <leafValues>
            -2.4310512840747833e-01 6.7012116312980652e-02</leafValues></_>
        <_>
          <internalNodes>
            0 -1 453 -1.5133294276893139e-02</internalNodes>
          <leafValues>
            1.4142151176929474e-01 -1.0734369605779648e-01</leafValues></_>
        <_>
          <internalNodes>
            0 -1 562 -2.8238762170076370e-03</internalNodes>
          <leafValues>
            2.7504152059555054e-01 -6.4610533416271210e-02</leafValues></_>
        <_>
          <internalNodes>
            0 -1 220 -5.5128699168562889e-03</internalNodes>
          <leafValues>
            2.1924349665641785e-01 -7.1395181119441986e-02</leafValues></_>
        <_>
          <internalNodes>
            0 -1 513 -1.2716312194243073e-03</internalNodes>
          <leafValues>
            -5.7843810319900513e-01 2.6233859360218048e-02</leafValues></_>
        <_>
          <internalNodes>
            0 -1 53 2.0239114761352539e-02</internalNodes>
          <leafValues>
            -3.3303208649158478e-02 4.9594452977180481e-01</leafValues></_>
        <_>
          <internalNodes>
            0 -1 931 1.3444968499243259e-04</internalNodes>
          <leafValues>
            7.4465334415435791e-02 -2.0173880457878113e-01</leafValues></_>
        <_>
          <internalNodes>
            0 -1 965 5.9291144134476781e-04</internalNodes>
          <leafValues>
            -1.2077584862709045e-01 1.6465896368026733e-01</leafValues></_>
        <_>
          <internalNodes>
            0 -1 647 -5.2462797611951828e-04</internalNodes>
          <leafValues>
            -2.9283669590950012e-01 5.0154380500316620e-02</leafValues></_>
        <_>
          <internalNodes>
            0 -1 651 -1.4246164355427027e-03</internalNodes>
          <leafValues>
            1.6515733301639557e-01 -1.1131575703620911e-01</leafValues></_>
        <_>
          <internalNodes>
            0 -1 955 -4.8768427222967148e-03</internalNodes>
          <leafValues>
            1.8467320501804352e-01 -8.1319741904735565e-02</leafValues></_>
        <_>
          <internalNodes>
            0 -1 1068 -3.4009558148682117e-03</internalNodes>
          <leafValues>
            2.4908055365085602e-01 -6.5605640411376953e-02</leafValues></_>
        <_>
          <internalNodes>
            0 -1 150 7.3141176253557205e-03</internalNodes>
          <leafValues>
            6.3367255032062531e-02 -2.3617921769618988e-01</leafValues></_>
        <_>
          <internalNodes>
            0 -1 134 -2.5036957114934921e-02</internalNodes>
          <leafValues>
            -2.2008882462978363e-01 7.5129516422748566e-02</leafValues></_>
        <_>
          <internalNodes>
            0 -1 908 -6.4189046621322632e-02</internalNodes>
          <leafValues>
            -5.3766596317291260e-01 2.6201687753200531e-02</leafValues></_>
        <_>
          <internalNodes>
            0 -1 297 9.3806786462664604e-03</internalNodes>
          <leafValues>
            8.2085564732551575e-02 -1.9156791269779205e-01</leafValues></_>
        <_>
          <internalNodes>
            0 -1 643 -6.4394557848572731e-03</internalNodes>
          <leafValues>
            4.1722407937049866e-01 -3.8421750068664551e-02</leafValues></_>
        <_>
          <internalNodes>
            0 -1 1006 7.8652445226907730e-03</internalNodes>
          <leafValues>
            -5.8114428073167801e-02 2.3603044450283051e-01</leafValues></_>
        <_>
          <internalNodes>
            0 -1 807 4.0761111304163933e-03</internalNodes>
          <leafValues>
            2.8848905116319656e-02 -5.2074849605560303e-01</leafValues></_>
        <_>
          <internalNodes>
            0 -1 840 -2.3995935916900635e-03</internalNodes>
          <leafValues>
            1.0448220372200012e-01 -1.4551238715648651e-01</leafValues></_>
        <_>
          <internalNodes>
            0 -1 418 5.5383110884577036e-04</internalNodes>
          <leafValues>
            9.7143433988094330e-02 -1.4559108018875122e-01</leafValues></_>
        <_>
          <internalNodes>
            0 -1 17 5.0935983657836914e-01</internalNodes>
          <leafValues>
            1.7326505854725838e-02 -8.2854026556015015e-01</leafValues></_>
        <_>
          <internalNodes>
