<?xml version="1.0"?>
<opencv_storage>
<stage10>
  <maxWeakCount>100</maxWeakCount>
  <stageThreshold>-1.5742408037185669e+00</stageThreshold>
  <weakClassifiers>
    <_>
      <internalNodes>
        0 -1 17067 2.7903106808662415e-01</internalNodes>
      <leafValues>
        -4.6112731099128723e-01 -5.4140128195285797e-02</leafValues></_>
    <_>
      <internalNodes>
        0 -1 159712 9.8091353720519692e-05</internalNodes>
      <leafValues>
        -2.5337338447570801e-01 1.4138090610504150e-01</leafValues></_>
    <_>
      <internalNodes>
        0 -1 157478 4.6554980799555779e-03</internalNodes>
      <leafValues>
        -1.0742425918579102e-01 2.6082035899162292e-01</leafValues></_>
    <_>
      <internalNodes>
        0 -1 81410 2.3668492212891579e-02</internalNodes>
      <leafValues>
        -8.2690745592117310e-02 3.0176949501037598e-01</leafValues></_>
    <_>
      <internalNodes>
        0 -1 60075 -2.1799765527248383e-02</internalNodes>
      <leafValues>
        -3.1452643871307373e-01 8.2053966820240021e-02</leafValues></_>
    <_>
      <internalNodes>
        0 -1 42571 -4.9164076335728168e-03</internalNodes>
      <leafValues>
        2.1248646080493927e-01 -8.7460085749626160e-02</leafValues></_>
    <_>
      <internalNodes>
        0 -1 139229 1.0857740417122841e-03</internalNodes>
      <leafValues>
        1.2088350951671600e-02 -6.9854491949081421e-01</leafValues></_>
    <_>
      <internalNodes>
        0 -1 6113 -7.3487102985382080e-02</internalNodes>
      <leafValues>
        3.1955739855766296e-01 -5.8995898813009262e-02</leafValues></_>
    <_>
      <internalNodes>
        0 -1 108232 -1.6951072029769421e-03</internalNodes>
      <leafValues>
        1.8377269804477692e-01 -1.1161693930625916e-01</leafValues></_>
    <_>
      <internalNodes>
        0 -1 70783 -1.7596762627363205e-02</internalNodes>
      <leafValues>
        -5.2902901172637939e-01 4.4930975884199142e-02</leafValues></_>
    <_>
      <internalNodes>
        0 -1 100962 4.3913889676332474e-02</internalNodes>
      <leafValues>
        -4.6580493450164795e-02 4.3973731994628906e-01</leafValues></_>
    <_>
      <internalNodes>
        0 -1 73827 1.5843629837036133e-02</internalNodes>
      <leafValues>
        3.3645499497652054e-02 -5.3897678852081299e-01</leafValues></_>
    <_>
      <internalNodes>
        0 -1 148295 -1.5256459300871938e-04</internalNodes>
      <leafValues>
        -2.1439853310585022e-01 7.0168673992156982e-02</leafValues></_>
    <_>
      <internalNodes>
        0 -1 148295 1.6952317673712969e-04</internalNodes>
      <leafValues>
        7.1336895227432251e-02 -2.4997335672378540e-01</leafValues></_>
    <_>
      <internalNodes>
        0 -1 154916 -9.1845169663429260e-03</internalNodes>
      <leafValues>
        3.5447180271148682e-01 -5.2244145423173904e-02</leafValues></_>
    <_>
      <internalNodes>
        0 -1 11922 -1.7492412589490414e-03</internalNodes>
      <leafValues>
        1.5921381115913391e-01 -1.1183628439903259e-01</leafValues></_>
    <_>
      <internalNodes>
        0 -1 11929 4.3025538325309753e-03</internalNodes>
      <leafValues>
        -8.7157890200614929e-02 2.3599560558795929e-01</leafValues></_>
    <_>
      <internalNodes>
        0 -1 13022 -4.4423236977308989e-04</internalNodes>
      <leafValues>
        1.1628688126802444e-01 -1.5466703474521637e-01</leafValues></_>
    <_>
      <internalNodes>
        0 -1 145529 -1.7109209671616554e-02</internalNodes>
      <leafValues>
        2.0847810804843903e-01 -8.4730409085750580e-02</leafValues></_>
    <_>
      <internalNodes>
        0 -1 107445 -6.1359941028058529e-03</internalNodes>
      <leafValues>
        -5.6538760662078857e-01 2.8328042477369308e-02</leafValues></_>
    <_>
      <internalNodes>
        0 -1 107435 1.5618643956258893e-03</internalNodes>
      <leafValues>
        5.0497259944677353e-02 -3.2985195517539978e-01</leafValues></_>
    <_>
      <internalNodes>
        0 -1 80452 -4.6264468692243099e-03</internalNodes>
      <leafValues>
        1.8396477401256561e-01 -8.5781306028366089e-02</leafValues></_>
    <_>
      <internalNodes>
        0 -1 121089 1.7436454072594643e-03</internalNodes>
      <leafValues>
        -6.9656066596508026e-02 2.8993484377861023e-01</leafValues></_>
    <_>
      <internalNodes>
        0 -1 25858 -1.7088986933231354e-02</internalNodes>
      <leafValues>
        -4.9407082796096802e-01 3.1604662537574768e-02</leafValues></_>
    <_>
      <internalNodes>
        0 -1 1568 -4.0510039776563644e-02</internalNodes>
      <leafValues>
        3.0799120664596558e-01 -5.2417825907468796e-02</leafValues></_>
    <_>
      <internalNodes>
        0 -1 124553 2.0773872733116150e-02</internalNodes>
      <leafValues>
        -5.6381981819868088e-02 2.7373537421226501e-01</leafValues></_>
    <_>
      <internalNodes>
        0 -1 82278 2.9330238248803653e-05</internalNodes>
      <leafValues>
        -1.1609707027673721e-01 1.3712051510810852e-01</leafValues></_>
    <_>
      <internalNodes>
        0 -1 125988 1.2473167851567268e-02</internalNodes>
      <leafValues>
        -1.3546209037303925e-01 1.1369924992322922e-01</leafValues></_>
    <_>
      <internalNodes>
        0 -1 156901 -1.2737359851598740e-02</internalNodes>
      <leafValues>
        1.1060143262147903e-01 -1.5989333391189575e-01</leafValues></_>
    <_>
      <internalNodes>
        0 -1 144267 1.5169478952884674e-02</internalNodes>
      <leafValues>
        -6.9940306246280670e-02 2.1748842298984528e-01</leafValues></_>
    <_>
      <internalNodes>
        0 -1 152025 -8.9546255767345428e-02</internalNodes>
      <leafValues>
        -7.4618852138519287e-01 1.7275113612413406e-02</leafValues></_>
    <_>
      <internalNodes>
        0 -1 4079 -5.6549417972564697e-01</internalNodes>
      <leafValues>
        -5.2198642492294312e-01 2.3682845756411552e-02</leafValues></_>
    <_>
      <internalNodes>
        0 -1 33719 -2.3264180868864059e-02</internalNodes>
      <leafValues>
        2.0789197087287903e-01 -7.3881685733795166e-02</leafValues></_>
    <_>
      <internalNodes>
        0 -1 22129 -3.3527005463838577e-02</internalNodes>
      <leafValues>
        -6.2900346517562866e-01 2.4893073365092278e-02</leafValues></_>
    <_>
      <internalNodes>
        0 -1 139229 -6.9180357968434691e-04</internalNodes>
      <leafValues>
        -4.2412546277046204e-01 3.6176290363073349e-02</leafValues></_>
    <_>
      <internalNodes>
        0 -1 37473 3.3652759157121181e-03</internalNodes>
      <leafValues>
        -6.5304860472679138e-02 2.3800548911094666e-01</leafValues></_>
    <_>
      <internalNodes>
        0 -1 25787 -1.6155417542904615e-03</internalNodes>
      <leafValues>
        -5.7467454671859741e-01 2.8383549302816391e-02</leafValues></_>
    <_>
      <internalNodes>
        0 -1 1098 5.6106591224670410e-01</internalNodes>
      <leafValues>
        1.6869168728590012e-02 -7.4753981828689575e-01</leafValues></_>
    <_>
      <internalNodes>
        0 -1 5065 3.5782421473413706e-03</internalNodes>
      <leafValues>
        -9.0084224939346313e-02 1.5299408137798309e-01</leafValues></_>
    <_>
      <internalNodes>
        0 -1 144038 -1.1784480884671211e-03</internalNodes>
      <leafValues>
        -3.0206307768821716e-01 4.3217882513999939e-02</leafValues></_>
    <_>
      <internalNodes>
        0 -1 82076 -1.2601415801327676e-04</internalNodes>
      <leafValues>
        1.1180661618709564e-01 -1.2308582663536072e-01</leafValues></_>
    <_>
      <internalNodes>
        0 -1 1487 -2.6445608586072922e-02</internalNodes>
      <leafValues>
        -3.6884543299674988e-01 3.8481328636407852e-02</leafValues></_>
    <_>
      <internalNodes>
        0 -1 127876 5.3956900956109166e-04</internalNodes>
      <leafValues>
        -1.2620352208614349e-01 1.0238612443208694e-01</leafValues></_>
    <_>
      <internalNodes>
        0 -1 29719 -3.2370802946388721e-03</internalNodes>
      <leafValues>
        1.3700121641159058e-01 -1.0253789275884628e-01</leafValues></_>
    <_>
      <internalNodes>
        0 -1 3458 8.0692768096923828e-02</internalNodes>
      <leafValues>
        -6.5215289592742920e-02 2.4224995076656342e-01</leafValues></_>
    <_>
      <internalNodes>
        0 -1 111810 -8.7243842426687479e-04</internalNodes>
      <leafValues>
        -2.8650793433189392e-01 5.4075438529253006e-02</leafValues></_>
    <_>
      <internalNodes>
        0 -1 56723 -1.6891900449991226e-02</internalNodes>
      <leafValues>
        -6.2848269939422607e-01 1.9367771223187447e-02</leafValues></_>
    <_>
      <internalNodes>
        0 -1 161068 1.1847524001495913e-04</internalNodes>
      <leafValues>
        -9.9824771285057068e-02 1.3181456923484802e-01</leafValues></_>
    <_>
      <internalNodes>
        0 -1 19658 1.5711840242147446e-02</internalNodes>
      <leafValues>
        -4.3941542506217957e-02 2.8774392604827881e-01</leafValues></_>
    <_>
      <internalNodes>
        0 -1 1104 -7.7620055526494980e-04</internalNodes>
      <leafValues>
        -3.3788475394248962e-01 4.1477259248495102e-02</leafValues></_>
    <_>
      <internalNodes>
        0 -1 152984 1.9189100712537766e-02</internalNodes>
      <leafValues>
        -2.3392241448163986e-02 5.8823853731155396e-01</leafValues></_>
    <_>
      <internalNodes>
        0 -1 154589 -9.6128620207309723e-03</internalNodes>
      <leafValues>
        1.7697122693061829e-01 -7.0090614259243011e-02</leafValues></_>
    <_>
      <internalNodes>
        0 -1 49396 4.1762506589293480e-04</internalNodes>
      <leafValues>
        4.9413580447435379e-02 -2.9743275046348572e-01</leafValues></_>
    <_>
      <internalNodes>
        0 -1 131524 5.1231100223958492e-03</internalNodes>
      <leafValues>
        1.7591040581464767e-02 -7.4788308143615723e-01</leafValues></_>
    <_>
      <internalNodes>
        0 -1 57638 -9.5197614282369614e-03</internalNodes>
      <leafValues>
        1.9078303873538971e-01 -6.9532096385955811e-02</leafValues></_>
    <_>
      <internalNodes>
        0 -1 126637 -1.3622872531414032e-02</internalNodes>
      <leafValues>
        5.0964796543121338e-01 -2.5643179193139076e-02</leafValues></_>
    <_>
      <internalNodes>
        0 -1 161945 -5.6372899562120438e-03</internalNodes>
      <leafValues>
        -5.9364098310470581e-01 2.5290157645940781e-02</leafValues></_>
    <_>
      <internalNodes>
        0 -1 85701 -1.3841812498867512e-02</internalNodes>
      <leafValues>
        1.7551821470260620e-01 -7.5806669890880585e-02</leafValues></_>
    <_>
      <internalNodes>
        0 -1 117674 -1.2795056682080030e-03</internalNodes>
      <leafValues>
        1.3708288967609406e-01 -1.0022058337926865e-01</leafValues></_>
    <_>
      <internalNodes>
        0 -1 28511 -1.6640596091747284e-02</internalNodes>
      <leafValues>
        1.4464205503463745e-01 -1.0620286315679550e-01</leafValues></_>
    <_>
      <internalNodes>
        0 -1 151304 8.6291395127773285e-03</internalNodes>
      <leafValues>
        -4.9860935658216476e-02 2.8823357820510864e-01</leafValues></_>
    <_>
      <internalNodes>
        0 -1 151313 -5.2966885268688202e-03</internalNodes>
      <leafValues>
        1.7287020385265350e-01 -8.8763065636157990e-02</leafValues></_>
    <_>
      <internalNodes>
        0 -1 162096 -5.5578455794602633e-04</internalNodes>
      <leafValues>
        -3.7603220343589783e-01 3.7019044160842896e-02</leafValues></_>
    <_>
      <internalNodes>
        0 -1 29665 -2.2317845374345779e-02</internalNodes>
      <leafValues>
        3.1595566868782043e-01 -4.4055771082639694e-02</leafValues></_>
    <_>
      <internalNodes>
        0 -1 39002 -1.5339867211878300e-02</internalNodes>
      <leafValues>
        -3.7700319290161133e-01 3.8660705089569092e-02</leafValues></_>
    <_>
      <internalNodes>
        0 -1 155051 1.5730217564851046e-03</internalNodes>
      <leafValues>
        -7.3481820523738861e-02 1.8721047043800354e-01</leafValues></_>
    <_>
      <internalNodes>
        0 -1 162082 -1.3959770149085671e-04</internalNodes>
      <leafValues>
        -1.8145439028739929e-01 8.5162669420242310e-02</leafValues></_>
    <_>
      <internalNodes>
        0 -1 29781 -6.8597905337810516e-03</internalNodes>
      <leafValues>
        -3.2479450106620789e-01 3.7624247372150421e-02</leafValues></_>
    <_>
      <internalNodes>
        0 -1 161994 3.8546598516404629e-03</internalNodes>
      <leafValues>
        5.2971452474594116e-02 -2.3540078103542328e-01</leafValues></_>
    <_>
      <internalNodes>
        0 -1 130201 -4.8320489004254341e-03</internalNodes>
      <leafValues>
        -3.3273553848266602e-01 3.8666848093271255e-02</leafValues></_>
    <_>
      <internalNodes>
        0 -1 162058 -3.8191722705960274e-04</internalNodes>
      <leafValues>
        1.2401112169027328e-01 -1.0465496778488159e-01</leafValues></_>
    <_>
      <internalNodes>
        0 -1 160836 -1.8859178526327014e-03</internalNodes>
      <leafValues>
        1.1045470088720322e-01 -1.1112850904464722e-01</leafValues></_>
    <_>
      <internalNodes>
        0 -1 11177 -5.2466496825218201e-02</internalNodes>
      <leafValues>
        -5.1939052343368530e-01 2.6315214112401009e-02</leafValues></_>
    <_>
      <internalNodes>
        0 -1 56231 3.6925608292222023e-03</internalNodes>
      <leafValues>
        -9.1229356825351715e-02 1.4617936313152313e-01</leafValues></_>
    <_>
      <internalNodes>
        0 -1 35396 -3.9082869887351990e-02</internalNodes>
      <leafValues>
        -7.1319288015365601e-01 1.6239417716860771e-02</leafValues></_>
    <_>
      <internalNodes>
        0 -1 121335 2.0600890275090933e-04</internalNodes>
      <leafValues>
        5.1828481256961823e-02 -2.4290271103382111e-01</leafValues></_>
    <_>
      <internalNodes>
        0 -1 155289 -2.4967778474092484e-02</internalNodes>
      <leafValues>
        -6.2824302911758423e-01 1.9337052479386330e-02</leafValues></_>
    <_>
      <internalNodes>
        0 -1 98241 -9.5492657274007797e-03</internalNodes>
      <leafValues>
        2.6556921005249023e-01 -4.7705389559268951e-02</leafValues></_>
    <_>
      <internalNodes>
        0 -1 91410 -1.7423439770936966e-02</internalNodes>
      <leafValues>
        1.8379685282707214e-01 -6.3683480024337769e-02</leafValues></_>
    <_>
      <internalNodes>
        0 -1 51220 -2.8944397345185280e-03</internalNodes>
      <leafValues>
        -5.1084619760513306e-01 2.5275817140936852e-02</leafValues></_>
    <_>
      <internalNodes>
        0 -1 159790 -2.1704120561480522e-02</internalNodes>
      <leafValues>
        -5.8106929063796997e-01 1.8774665892124176e-02</leafValues></_>
    <_>
      <internalNodes>
        0 -1 159909 -1.1824900284409523e-02</internalNodes>
      <leafValues>
        3.0073869228363037e-01 -4.4416464865207672e-02</leafValues></_>
    <_>
      <internalNodes>
        0 -1 32756 6.0980720445513725e-03</internalNodes>
      <leafValues>
        -4.6438407152891159e-02 2.7715227007865906e-01</leafValues></_>
    <_>
      <internalNodes>
        0 -1 121300 -1.6993944882415235e-04</internalNodes>
      <leafValues>
        -1.6523124277591705e-01 7.3739595711231232e-02</leafValues></_>
    <_>
      <internalNodes>
        0 -1 140542 -2.4089980870485306e-02</internalNodes>
      <leafValues>
        1.9612838327884674e-01 -6.1058036983013153e-02</leafValues></_>
    <_>
      <internalNodes>
        0 -1 124402 -1.9592822063714266e-03</internalNodes>
      <leafValues>
        1.1937403678894043e-01 -1.0619381815195084e-01</leafValues></_>
    <_>
      <internalNodes>
        0 -1 149027 -4.6700523234903812e-03</internalNodes>
      <leafValues>
        1.6770492494106293e-01 -7.6034128665924072e-02</leafValues></_>
    <_>
      <internalNodes>
        0 -1 132302 6.6551730036735535e-02</internalNodes>
      <leafValues>
        -2.5977954268455505e-02 4.8876965045928955e-01</leafValues></_>
    <_>
      <internalNodes>
        0 -1 9980 -1.5280582010746002e-02</internalNodes>
      <leafValues>
        1.2076491117477417e-01 -1.0909172892570496e-01</leafValues></_>
    <_>
      <internalNodes>
        0 -1 46136 -9.0029574930667877e-03</internalNodes>
      <leafValues>
        -2.3328867554664612e-01 5.9153411537408829e-02</leafValues></_>
    <_>
      <internalNodes>
        0 -1 28060 -2.7531020343303680e-02</internalNodes>
      <leafValues>
        1.9650612771511078e-01 -6.8294994533061981e-02</leafValues></_>
    <_>
      <internalNodes>
        0 -1 89343 1.7204221803694963e-03</internalNodes>
      <leafValues>
        -6.1328578740358353e-02 2.1004416048526764e-01</leafValues></_>
    <_>
      <internalNodes>
        0 -1 122914 -1.4253964181989431e-03</internalNodes>
      <leafValues>
        -5.5836582183837891e-01 2.5281410664319992e-02</leafValues></_>
    <_>
      <internalNodes>
        0 -1 97889 -7.5806769018527120e-05</internalNodes>
      <leafValues>
        1.0119809210300446e-01 -1.2713170051574707e-01</leafValues></_>
    <_>
      <internalNodes>
        0 -1 78677 -5.0556968199089170e-04</internalNodes>
      <leafValues>
        9.7820848226547241e-02 -1.4716300368309021e-01</leafValues></_>
    <_>
      <internalNodes>
        0 -1 6154 -1.4992766082286835e-02</internalNodes>
      <leafValues>
        1.5189361572265625e-01 -1.0638319700956345e-01</leafValues></_>
    <_>
      <internalNodes>
        0 -1 113561 4.7979207010939717e-04</internalNodes>
      <leafValues>
        6.6871657967567444e-02 -1.9935147464275360e-01</leafValues></_>
    <_>
      <internalNodes>
        0 -1 113561 -2.2617061040364206e-04</internalNodes>
      <leafValues>
        -1.6115888953208923e-01 7.8413464128971100e-02</leafValues></_>
    <_>
      <internalNodes>
        0 -1 68687 -9.0996362268924713e-04</internalNodes>
      <leafValues>
        1.4665713906288147e-01 -9.8366260528564453e-02</leafValues></_>
    <_>
      <internalNodes>
        0 -1 188 4.2944900691509247e-02</internalNodes>
      <leafValues>
        6.0218665748834610e-02 -2.0387595891952515e-01</leafValues></_></weakClassifiers></stage10>
</opencv_storage>
