<?xml version="1.0"?>
<opencv_storage>
<stage0>
  <maxWeakCount>20</maxWeakCount>
  <stageThreshold>-1.9717024564743042e+00</stageThreshold>
  <weakClassifiers>
    <_>
      <internalNodes>
        0 -1 21544 -1.1517168581485748e-01</internalNodes>
      <leafValues>
        3.8350516557693481e-01 -6.7586207389831543e-01</leafValues></_>
    <_>
      <internalNodes>
        0 -1 152091 -3.0547402799129486e-02</internalNodes>
      <leafValues>
        7.4865269660949707e-01 -2.7283161878585815e-01</leafValues></_>
    <_>
      <internalNodes>
        0 -1 4601 -1.7199531197547913e-01</internalNodes>
      <leafValues>
        8.5285228490829468e-01 -2.1980762481689453e-01</leafValues></_>
    <_>
      <internalNodes>
        0 -1 545 1.1428871750831604e-01</internalNodes>
      <leafValues>
        -1.2898635864257813e-01 7.7524918317794800e-01</leafValues></_>
    <_>
      <internalNodes>
        0 -1 16283 -7.9664275050163269e-02</internalNodes>
      <leafValues>
        7.3303753137588501e-01 -1.4797067642211914e-01</leafValues></_>
    <_>
      <internalNodes>
        0 -1 4407 -6.7642465233802795e-02</internalNodes>
      <leafValues>
        6.6957509517669678e-01 -1.8063846230506897e-01</leafValues></_>
    <_>
      <internalNodes>
        0 -1 13620 3.0959982424974442e-02</internalNodes>
      <leafValues>
        -1.5798932313919067e-01 7.5976365804672241e-01</leafValues></_>
    <_>
      <internalNodes>
        0 -1 133749 -4.5044720172882080e-04</internalNodes>
      <leafValues>
        -6.5728539228439331e-01 2.0358793437480927e-01</leafValues></_>
    <_>
      <internalNodes>
        0 -1 133749 6.9201306905597448e-04</internalNodes>
      <leafValues>
        1.8782128393650055e-01 -7.6899659633636475e-01</leafValues></_>
    <_>
      <internalNodes>
        0 -1 13370 6.2124738469719887e-03</internalNodes>
      <leafValues>
        -2.8407201170921326e-01 4.9947446584701538e-01</leafValues></_>
    <_>
      <internalNodes>
        0 -1 141782 -3.0198575928807259e-02</internalNodes>
      <leafValues>
        6.6649341583251953e-01 -1.4793063700199127e-01</leafValues></_>
    <_>
      <internalNodes>
        0 -1 98591 -3.1961884815245867e-04</internalNodes>
      <leafValues>
        -5.7634961605072021e-01 2.1306921541690826e-01</leafValues></_>
    <_>
      <internalNodes>
        0 -1 83846 -6.3891179859638214e-02</internalNodes>
      <leafValues>
        6.6993570327758789e-01 -1.6450649499893188e-01</leafValues></_>
    <_>
      <internalNodes>
        0 -1 39227 -7.7578127384185791e-02</internalNodes>
      <leafValues>
        8.1719315052032471e-01 -1.2198401242494583e-01</leafValues></_>
    <_>
      <internalNodes>
        0 -1 151831 5.2638596389442682e-04</internalNodes>
      <leafValues>
        1.8418477475643158e-01 -6.6933041810989380e-01</leafValues></_>
    <_>
      <internalNodes>
        0 -1 158355 -8.3857178688049316e-03</internalNodes>
      <leafValues>
        5.0786006450653076e-01 -2.2784967720508575e-01</leafValues></_>
    <_>
      <internalNodes>
        0 -1 139854 -4.9829877912998199e-02</internalNodes>
      <leafValues>
        7.4032545089721680e-01 -1.2831994891166687e-01</leafValues></_>
    <_>
      <internalNodes>
        0 -1 52029 1.2047570943832397e-01</internalNodes>
      <leafValues>
        -1.2672562897205353e-01 7.1278411149978638e-01</leafValues></_>
    <_>
      <internalNodes>
        0 -1 31833 -4.5508682727813721e-02</internalNodes>
      <leafValues>
        7.7400475740432739e-01 -1.4559195935726166e-01</leafValues></_>
    <_>
      <internalNodes>
        0 -1 161177 3.3031695056706667e-04</internalNodes>
      <leafValues>
        2.1008987724781036e-01 -5.7304161787033081e-01</leafValues></_></weakClassifiers></stage0>
</opencv_storage>
