<?xml version="1.0"?>
<opencv_storage>
<stage9>
  <maxWeakCount>100</maxWeakCount>
  <stageThreshold>-1.6744787693023682e+00</stageThreshold>
  <weakClassifiers>
    <_>
      <internalNodes>
        0 -1 113214 -3.1594190746545792e-02</internalNodes>
      <leafValues>
        7.8167118132114410e-02 -4.2705136537551880e-01</leafValues></_>
    <_>
      <internalNodes>
        0 -1 114360 -3.5120511893182993e-04</internalNodes>
      <leafValues>
        -4.3374970555305481e-01 5.4087065160274506e-02</leafValues></_>
    <_>
      <internalNodes>
        0 -1 21585 -5.1091201603412628e-03</internalNodes>
      <leafValues>
        3.3797374367713928e-01 -9.0332284569740295e-02</leafValues></_>
    <_>
      <internalNodes>
        0 -1 158741 1.3460535556077957e-02</internalNodes>
      <leafValues>
        -6.0663204640150070e-02 3.2517865300178528e-01</leafValues></_>
    <_>
      <internalNodes>
        0 -1 143966 -4.9547827802598476e-04</internalNodes>
      <leafValues>
        -3.4143972396850586e-01 5.9756174683570862e-02</leafValues></_>
    <_>
      <internalNodes>
        0 -1 114298 2.5094061857089400e-04</internalNodes>
      <leafValues>
        1.2358357757329941e-01 -2.3714369535446167e-01</leafValues></_>
    <_>
      <internalNodes>
        0 -1 107439 -9.6494046738371253e-04</internalNodes>
      <leafValues>
        1.7248821258544922e-01 -1.6151589155197144e-01</leafValues></_>
    <_>
      <internalNodes>
        0 -1 829 -3.4673217684030533e-02</internalNodes>
      <leafValues>
        -2.7920418977737427e-01 1.1838337033987045e-01</leafValues></_>
    <_>
      <internalNodes>
        0 -1 25239 -3.4452259540557861e-02</internalNodes>
      <leafValues>
        2.5330975651741028e-01 -1.1335403472185135e-01</leafValues></_>
    <_>
      <internalNodes>
        0 -1 7928 9.5810234546661377e-02</internalNodes>
      <leafValues>
        6.8243481218814850e-02 -3.7684905529022217e-01</leafValues></_>
    <_>
      <internalNodes>
        0 -1 128462 2.1566057205200195e-01</internalNodes>
      <leafValues>
        1.9411874935030937e-02 -9.0742880105972290e-01</leafValues></_>
    <_>
      <internalNodes>
        0 -1 80534 1.7082188278436661e-03</internalNodes>
      <leafValues>
        -8.0443970859050751e-02 2.5630509853363037e-01</leafValues></_>
    <_>
      <internalNodes>
        0 -1 89320 -4.3187029659748077e-03</internalNodes>
      <leafValues>
        -1.7799906432628632e-01 9.9802680313587189e-02</leafValues></_>
    <_>
      <internalNodes>
        0 -1 148512 -3.8887958973646164e-02</internalNodes>
      <leafValues>
        2.5585028529167175e-01 -6.4929142594337463e-02</leafValues></_>
    <_>
      <internalNodes>
        0 -1 4241 -3.9815112948417664e-02</internalNodes>
      <leafValues>
        4.4818553328514099e-01 -4.7409355640411377e-02</leafValues></_>
    <_>
      <internalNodes>
        0 -1 161561 -1.0570377111434937e-02</internalNodes>
      <leafValues>
        4.0378069877624512e-01 -4.5911703258752823e-02</leafValues></_>
    <_>
      <internalNodes>
        0 -1 80428 -1.4889377169311047e-02</internalNodes>
      <leafValues>
        -2.5072169303894043e-01 7.3536656796932220e-02</leafValues></_>
    <_>
      <internalNodes>
        0 -1 161727 1.4433940872550011e-02</internalNodes>
      <leafValues>
        -3.5236254334449768e-02 5.0066965818405151e-01</leafValues></_>
    <_>
      <internalNodes>
        0 -1 102873 -4.3978979811072350e-03</internalNodes>
      <leafValues>
        2.5835210084915161e-01 -7.3049001395702362e-02</leafValues></_>
    <_>
      <internalNodes>
        0 -1 83545 1.2607085518538952e-03</internalNodes>
      <leafValues>
        7.4629284441471100e-02 -2.2950705885887146e-01</leafValues></_>
    <_>
      <internalNodes>
        0 -1 119754 1.0464997030794621e-03</internalNodes>
      <leafValues>
        1.0437607020139694e-01 -1.5911784768104553e-01</leafValues></_>
    <_>
      <internalNodes>
        0 -1 108601 1.0495323222130537e-03</internalNodes>
      <leafValues>
        7.5511962175369263e-02 -2.0110239088535309e-01</leafValues></_>
    <_>
      <internalNodes>
        0 -1 100608 5.7607970666140318e-04</internalNodes>
      <leafValues>
        1.0691075026988983e-01 -1.5171927213668823e-01</leafValues></_>
    <_>
      <internalNodes>
        0 -1 73230 5.5676080286502838e-02</internalNodes>
      <leafValues>
        -2.8801830485463142e-02 6.8830484151840210e-01</leafValues></_>
    <_>
      <internalNodes>
        0 -1 149496 2.3812308907508850e-02</internalNodes>
      <leafValues>
        -3.4085609018802643e-02 3.8556441664695740e-01</leafValues></_>
    <_>
      <internalNodes>
        0 -1 24089 3.3813361078500748e-03</internalNodes>
      <leafValues>
        -7.7886842191219330e-02 2.0193214714527130e-01</leafValues></_>
    <_>
      <internalNodes>
        0 -1 79330 -3.3035743399523199e-05</internalNodes>
      <leafValues>
        1.0618078708648682e-01 -1.4237952232360840e-01</leafValues></_>
    <_>
      <internalNodes>
        0 -1 38891 2.5229092687368393e-02</internalNodes>
      <leafValues>
        -8.4178403019905090e-02 1.9561126828193665e-01</leafValues></_>
    <_>
      <internalNodes>
        0 -1 121432 -3.2760668545961380e-03</internalNodes>
      <leafValues>
        1.9382451474666595e-01 -1.0249108821153641e-01</leafValues></_>
    <_>
      <internalNodes>
        0 -1 152468 -2.5305606424808502e-02</internalNodes>
      <leafValues>
        -7.9610610008239746e-01 2.2913128137588501e-02</leafValues></_>
    <_>
      <internalNodes>
        0 -1 24091 -9.0174823999404907e-03</internalNodes>
      <leafValues>
        2.3574651777744293e-01 -7.6195456087589264e-02</leafValues></_>
    <_>
      <internalNodes>
        0 -1 10066 8.2316305488348007e-03</internalNodes>
      <leafValues>
        6.4826354384422302e-02 -2.4946306645870209e-01</leafValues></_>
    <_>
      <internalNodes>
        0 -1 154875 -2.5099674239754677e-03</internalNodes>
      <leafValues>
        2.7638235688209534e-01 -5.6829739362001419e-02</leafValues></_>
    <_>
      <internalNodes>
        0 -1 59637 -5.2457563579082489e-03</internalNodes>
      <leafValues>
        2.6025339961051941e-01 -5.8094341307878494e-02</leafValues></_>
    <_>
      <internalNodes>
        0 -1 113756 -4.6487589133903384e-04</internalNodes>
      <leafValues>
        -2.6844236254692078e-01 5.6583441793918610e-02</leafValues></_>
    <_>
      <internalNodes>
        0 -1 157088 -2.3704173509031534e-03</internalNodes>
      <leafValues>
        9.5276631414890289e-02 -1.5924358367919922e-01</leafValues></_>
    <_>
      <internalNodes>
        0 -1 69532 1.5157343586906791e-03</internalNodes>
      <leafValues>
        -9.4942294061183929e-02 1.8123005330562592e-01</leafValues></_>
    <_>
      <internalNodes>
        0 -1 158897 -2.6569092369754799e-05</internalNodes>
      <leafValues>
        1.2987971305847168e-01 -1.2311106920242310e-01</leafValues></_>
    <_>
      <internalNodes>
        0 -1 103981 -9.8061397671699524e-02</internalNodes>
      <leafValues>
        -4.7117915749549866e-01 3.0657744035124779e-02</leafValues></_>
    <_>
      <internalNodes>
        0 -1 94923 -7.4147367849946022e-03</internalNodes>
      <leafValues>
        3.1880915164947510e-01 -4.8094984143972397e-02</leafValues></_>
    <_>
      <internalNodes>
        0 -1 63718 -2.2459179162979126e-02</internalNodes>
      <leafValues>
        3.2880020141601563e-01 -4.5383639633655548e-02</leafValues></_>
    <_>
      <internalNodes>
        0 -1 13372 1.5643420920241624e-04</internalNodes>
      <leafValues>
        6.3512407243251801e-02 -2.2938579320907593e-01</leafValues></_>
    <_>
      <internalNodes>
        0 -1 99326 -3.9009185275062919e-04</internalNodes>
      <leafValues>
        -2.1957924962043762e-01 6.3747182488441467e-02</leafValues></_>
    <_>
      <internalNodes>
        0 -1 16384 1.2394323945045471e-02</internalNodes>
      <leafValues>
        -4.0385231375694275e-02 3.4164583683013916e-01</leafValues></_>
    <_>
      <internalNodes>
        0 -1 96977 9.2508308589458466e-02</internalNodes>
      <leafValues>
        -1.6734529286623001e-02 7.5832843780517578e-01</leafValues></_>
    <_>
      <internalNodes>
        0 -1 98608 1.6774762189015746e-03</internalNodes>
      <leafValues>
        -7.2261653840541840e-02 1.9329340755939484e-01</leafValues></_>
    <_>
      <internalNodes>
        0 -1 11497 -9.3946848064661026e-03</internalNodes>
      <leafValues>
        -3.7850686907768250e-01 3.5791493952274323e-02</leafValues></_>
    <_>
      <internalNodes>
        0 -1 14440 -5.5656339973211288e-03</internalNodes>
      <leafValues>
        3.6402612924575806e-01 -3.9534214884042740e-02</leafValues></_>
    <_>
      <internalNodes>
        0 -1 37984 -2.8636198840104043e-04</internalNodes>
      <leafValues>
        -2.4928361177444458e-01 6.2998540699481964e-02</leafValues></_>
    <_>
      <internalNodes>
        0 -1 140854 -1.2781291268765926e-02</internalNodes>
      <leafValues>
        -2.1749180555343628e-01 5.7498533278703690e-02</leafValues></_>
    <_>
      <internalNodes>
        0 -1 798 4.1409093141555786e-01</internalNodes>
      <leafValues>
        1.6590397804975510e-02 -7.6907908916473389e-01</leafValues></_>
    <_>
      <internalNodes>
        0 -1 64717 1.4036357402801514e-01</internalNodes>
      <leafValues>
        -5.4790310561656952e-02 2.8556331992149353e-01</leafValues></_>
    <_>
      <internalNodes>
        0 -1 118674 1.3621309772133827e-03</internalNodes>
      <leafValues>
        6.6280290484428406e-02 -2.1908628940582275e-01</leafValues></_>
    <_>
      <internalNodes>
        0 -1 146216 1.3415529392659664e-03</internalNodes>
      <leafValues>
        -6.7061178386211395e-02 1.9383825361728668e-01</leafValues></_>
    <_>
      <internalNodes>
        0 -1 115598 -2.6244544424116611e-03</internalNodes>
      <leafValues>
        1.5598271787166595e-01 -9.2546761035919189e-02</leafValues></_>
    <_>
      <internalNodes>
        0 -1 67226 -9.0150516480207443e-03</internalNodes>
      <leafValues>
        5.1722824573516846e-01 -2.8892120346426964e-02</leafValues></_>
    <_>
      <internalNodes>
        0 -1 38312 6.2375411391258240e-02</internalNodes>
      <leafValues>
        2.8829202055931091e-02 -4.7649899125099182e-01</leafValues></_>
    <_>
      <internalNodes>
        0 -1 157143 -4.8033986240625381e-03</internalNodes>
      <leafValues>
        -2.3323038220405579e-01 5.2983302623033524e-02</leafValues></_>
    <_>
      <internalNodes>
        0 -1 96110 -1.7276579514145851e-02</internalNodes>
      <leafValues>
        4.7855439782142639e-01 -2.9135406017303467e-02</leafValues></_>
    <_>
      <internalNodes>
        0 -1 151485 -5.8274343609809875e-04</internalNodes>
      <leafValues>
        -3.4447419643402100e-01 4.4790349900722504e-02</leafValues></_>
    <_>
      <internalNodes>
        0 -1 49373 1.8286746926605701e-03</internalNodes>
      <leafValues>
        -7.2269760072231293e-02 1.8922574818134308e-01</leafValues></_>
    <_>
      <internalNodes>
        0 -1 89812 -1.7246502102352679e-04</internalNodes>
      <leafValues>
        -1.9982320070266724e-01 6.1778414994478226e-02</leafValues></_>
    <_>
      <internalNodes>
        0 -1 88841 -9.1178752481937408e-03</internalNodes>
      <leafValues>
        3.9904588460922241e-01 -3.3085115253925323e-02</leafValues></_>
    <_>
      <internalNodes>
        0 -1 125772 -1.1679162271320820e-03</internalNodes>
      <leafValues>
        -1.8762351572513580e-01 7.2521634399890900e-02</leafValues></_>
    <_>
      <internalNodes>
        0 -1 20973 3.7749204784631729e-03</internalNodes>
      <leafValues>
        -6.5025299787521362e-02 2.2487428784370422e-01</leafValues></_>
    <_>
      <internalNodes>
        0 -1 25792 3.1006983481347561e-03</internalNodes>
      <leafValues>
        4.4359937310218811e-02 -2.6861312985420227e-01</leafValues></_>
    <_>
      <internalNodes>
        0 -1 89709 -2.1026164758950472e-03</internalNodes>
      <leafValues>
        2.1845446527004242e-01 -6.4369000494480133e-02</leafValues></_>
    <_>
      <internalNodes>
        0 -1 49459 -4.2163126636296511e-04</internalNodes>
      <leafValues>
        -2.9717877507209778e-01 4.4408097863197327e-02</leafValues></_>
    <_>
      <internalNodes>
        0 -1 28748 -5.4043661803007126e-03</internalNodes>
      <leafValues>
        1.6328527033329010e-01 -8.1154651939868927e-02</leafValues></_>
    <_>
      <internalNodes>
        0 -1 54267 -1.0961888357996941e-02</internalNodes>
      <leafValues>
        -6.9331508874893188e-01 1.9667128100991249e-02</leafValues></_>
    <_>
      <internalNodes>
        0 -1 36287 4.7415192238986492e-03</internalNodes>
      <leafValues>
        -5.8339729905128479e-02 2.2517670691013336e-01</leafValues></_>
    <_>
      <internalNodes>
        0 -1 60493 -2.5788176804780960e-02</internalNodes>
      <leafValues>
        -9.2785656452178955e-01 1.5696646645665169e-02</leafValues></_>
    <_>
      <internalNodes>
        0 -1 160300 -3.3339695073664188e-03</internalNodes>
      <leafValues>
        2.1822847425937653e-01 -5.8219168335199356e-02</leafValues></_>
    <_>
      <internalNodes>
        0 -1 132097 2.7892618163605221e-05</internalNodes>
      <leafValues>
        -1.1427012085914612e-01 1.0498460382223129e-01</leafValues></_>
    <_>
      <internalNodes>
        0 -1 60165 -1.7299840692430735e-03</internalNodes>
      <leafValues>
        -1.2309905141592026e-01 9.7594037652015686e-02</leafValues></_>
    <_>
      <internalNodes>
        0 -1 70083 -7.9298531636595726e-04</internalNodes>
      <leafValues>
        1.8012973666191101e-01 -7.6621994376182556e-02</leafValues></_>
    <_>
      <internalNodes>
        0 -1 111810 9.7351078875362873e-04</internalNodes>
      <leafValues>
        4.1332568973302841e-02 -3.0329281091690063e-01</leafValues></_>
    <_>
      <internalNodes>
        0 -1 87063 -1.5598024241626263e-02</internalNodes>
      <leafValues>
        1.6572573781013489e-01 -8.3959229290485382e-02</leafValues></_>
    <_>
      <internalNodes>
        0 -1 155409 -3.8579483516514301e-03</internalNodes>
      <leafValues>
        -2.5755006074905396e-01 5.0424028187990189e-02</leafValues></_>
    <_>
      <internalNodes>
        0 -1 9969 7.8910440206527710e-03</internalNodes>
      <leafValues>
        -6.9047562777996063e-02 1.7602549493312836e-01</leafValues></_>
    <_>
      <internalNodes>
        0 -1 148779 3.6513455212116241e-02</internalNodes>
      <leafValues>
        -5.3063321858644485e-02 2.4832092225551605e-01</leafValues></_>
    <_>
      <internalNodes>
        0 -1 23189 -7.5413961894810200e-04</internalNodes>
      <leafValues>
        1.8633985519409180e-01 -6.9687008857727051e-02</leafValues></_>
    <_>
      <internalNodes>
        0 -1 158413 -3.4751163329929113e-03</internalNodes>
      <leafValues>
        2.4797475337982178e-01 -5.2442077547311783e-02</leafValues></_>
    <_>
      <internalNodes>
        0 -1 138857 6.4229324460029602e-02</internalNodes>
      <leafValues>
        3.4069634974002838e-02 -4.3392553925514221e-01</leafValues></_>
    <_>
      <internalNodes>
        0 -1 94092 2.4759432673454285e-01</internalNodes>
      <leafValues>
        -3.2213952392339706e-02 4.6984279155731201e-01</leafValues></_>
    <_>
      <internalNodes>
        0 -1 154367 1.5570392832159996e-02</internalNodes>
      <leafValues>
        2.1374560892581940e-02 -6.9275063276290894e-01</leafValues></_>
    <_>
      <internalNodes>
        0 -1 132762 -5.0177448429167271e-04</internalNodes>
      <leafValues>
        9.0426087379455566e-02 -1.5381270647048950e-01</leafValues></_>
    <_>
      <internalNodes>
        0 -1 6566 -1.2465126812458038e-01</internalNodes>
      <leafValues>
        1.8749384582042694e-01 -7.8341200947761536e-02</leafValues></_>
    <_>
      <internalNodes>
        0 -1 141870 -2.4016797542572021e-02</internalNodes>
      <leafValues>
        -2.2121444344520569e-01 7.4001930654048920e-02</leafValues></_>
    <_>
      <internalNodes>
        0 -1 148275 1.7267346265725791e-04</internalNodes>
      <leafValues>
        7.3809482157230377e-02 -1.9051396846771240e-01</leafValues></_>
    <_>
      <internalNodes>
        0 -1 139208 -2.4407499586232007e-04</internalNodes>
      <leafValues>
        -1.3666491210460663e-01 1.0304054617881775e-01</leafValues></_>
    <_>
      <internalNodes>
        0 -1 43109 -4.7277011908590794e-03</internalNodes>
      <leafValues>
        2.3582638800144196e-01 -5.8155208826065063e-02</leafValues></_>
    <_>
      <internalNodes>
        0 -1 120567 -1.8000762793235481e-04</internalNodes>
      <leafValues>
        -1.8813009560108185e-01 6.6598765552043915e-02</leafValues></_>
    <_>
      <internalNodes>
        0 -1 147963 1.2150618713349104e-03</internalNodes>
      <leafValues>
        -6.8501695990562439e-02 1.8995451927185059e-01</leafValues></_>
    <_>
      <internalNodes>
        0 -1 16956 -2.5311458110809326e-01</internalNodes>
      <leafValues>
        4.8550319671630859e-01 -2.7007805183529854e-02</leafValues></_>
    <_>
      <internalNodes>
        0 -1 81349 -1.2232031673192978e-02</internalNodes>
      <leafValues>
        3.2070308923721313e-01 -3.6319620907306671e-02</leafValues></_>
    <_>
      <internalNodes>
        0 -1 26649 1.1014108546078205e-02</internalNodes>
      <leafValues>
        -5.0194650888442993e-02 2.4466085433959961e-01</leafValues></_>
    <_>
      <internalNodes>
        0 -1 81 -6.6775077721104026e-04</internalNodes>
      <leafValues>
        -2.1243572235107422e-01 6.2356434762477875e-02</leafValues></_>
    <_>
      <internalNodes>
        0 -1 15459 -4.6193245798349380e-03</internalNodes>
      <leafValues>
        -1.9098725914955139e-01 6.3822187483310699e-02</leafValues></_>
    <_>
      <internalNodes>
        0 -1 193 5.5295094847679138e-02</internalNodes>
      <leafValues>
        6.5819829702377319e-02 -2.0284549891948700e-01</leafValues></_></weakClassifiers></stage9>
</opencv_storage>
