<?xml version="1.0"?>
<opencv_storage>
<stage14>
  <maxWeakCount>100</maxWeakCount>
  <stageThreshold>-1.6804835796356201e+00</stageThreshold>
  <weakClassifiers>
    <_>
      <internalNodes>
        0 -1 36479 -2.1340789273381233e-02</internalNodes>
      <leafValues>
        -1.7878468334674835e-01 -4.7288295626640320e-01</leafValues></_>
    <_>
      <internalNodes>
        0 -1 159654 3.5898116766475141e-04</internalNodes>
      <leafValues>
        -1.6139599680900574e-01 1.3055263459682465e-01</leafValues></_>
    <_>
      <internalNodes>
        0 -1 40628 6.2222731113433838e-01</internalNodes>
      <leafValues>
        -4.7731302678585052e-02 3.6552438139915466e-01</leafValues></_>
    <_>
      <internalNodes>
        0 -1 37884 -7.2058737277984619e-03</internalNodes>
      <leafValues>
        2.2498910129070282e-01 -7.3191456496715546e-02</leafValues></_>
    <_>
      <internalNodes>
        0 -1 19161 -1.0690838098526001e-02</internalNodes>
      <leafValues>
        1.6694188117980957e-01 -1.0211143642663956e-01</leafValues></_>
    <_>
      <internalNodes>
        0 -1 152670 -3.6063673906028271e-03</internalNodes>
      <leafValues>
        -6.1023432016372681e-01 2.6926163583993912e-02</leafValues></_>
    <_>
      <internalNodes>
        0 -1 139237 4.7147528675850481e-05</internalNodes>
      <leafValues>
        -1.1323428153991699e-01 1.4545373618602753e-01</leafValues></_>
    <_>
      <internalNodes>
        0 -1 115407 -4.5930249616503716e-03</internalNodes>
      <leafValues>
        2.3007655143737793e-01 -5.4277762770652771e-02</leafValues></_>
    <_>
      <internalNodes>
        0 -1 157333 -5.8755478821694851e-03</internalNodes>
      <leafValues>
        1.0028786957263947e-01 -1.3588206470012665e-01</leafValues></_>
    <_>
      <internalNodes>
        0 -1 1633 3.0651742126792669e-03</internalNodes>
      <leafValues>
        -5.6710045784711838e-02 2.0631429553031921e-01</leafValues></_>
    <_>
      <internalNodes>
        0 -1 149222 -2.0962813869118690e-03</internalNodes>
      <leafValues>
        1.6502408683300018e-01 -8.6194768548011780e-02</leafValues></_>
    <_>
      <internalNodes>
        0 -1 158516 8.2374818157404661e-04</internalNodes>
      <leafValues>
        -1.2330112606287003e-01 1.1373904347419739e-01</leafValues></_>
    <_>
      <internalNodes>
        0 -1 59467 2.5477127637714148e-03</internalNodes>
      <leafValues>
        -7.4789837002754211e-02 1.9355976581573486e-01</leafValues></_>
    <_>
      <internalNodes>
        0 -1 11975 1.5116821974515915e-02</internalNodes>
      <leafValues>
        -5.1676310598850250e-02 2.6360568404197693e-01</leafValues></_>
    <_>
      <internalNodes>
        0 -1 113096 5.3493026643991470e-04</internalNodes>
      <leafValues>
        8.6148470640182495e-02 -1.5857693552970886e-01</leafValues></_>
    <_>
      <internalNodes>
        0 -1 13713 -2.4943558964878321e-03</internalNodes>
      <leafValues>
        -2.8141334652900696e-01 4.5231901109218597e-02</leafValues></_>
    <_>
      <internalNodes>
        0 -1 13553 9.0409797849133611e-04</internalNodes>
      <leafValues>
        5.9573564678430557e-02 -2.0062246918678284e-01</leafValues></_>
    <_>
      <internalNodes>
        0 -1 25605 -2.3238277208292857e-05</internalNodes>
      <leafValues>
        9.2144370079040527e-02 -1.2823307514190674e-01</leafValues></_>
    <_>
      <internalNodes>
        0 -1 100023 -6.2281417194753885e-04</internalNodes>
      <leafValues>
        1.3933880627155304e-01 -8.7011866271495819e-02</leafValues></_>
    <_>
      <internalNodes>
        0 -1 3136 -2.6749850803753361e-05</internalNodes>
      <leafValues>
        1.2266309559345245e-01 -8.8491529226303101e-02</leafValues></_>
    <_>
      <internalNodes>
        0 -1 161187 2.2005062783136964e-04</internalNodes>
      <leafValues>
        5.8349896222352982e-02 -1.8942995369434357e-01</leafValues></_>
    <_>
      <internalNodes>
        0 -1 158031 -1.1390794068574905e-02</internalNodes>
      <leafValues>
        2.1166706085205078e-01 -5.7991988956928253e-02</leafValues></_>
    <_>
      <internalNodes>
        0 -1 149382 9.8448768258094788e-02</internalNodes>
      <leafValues>
        1.8247142434120178e-02 -5.9783339500427246e-01</leafValues></_>
    <_>
      <internalNodes>
        0 -1 113336 -1.7029121227096766e-04</internalNodes>
      <leafValues>
        -1.4039690792560577e-01 7.2491325438022614e-02</leafValues></_>
    <_>
      <internalNodes>
        0 -1 156548 -2.7684739325195551e-03</internalNodes>
      <leafValues>
        -5.7187926769256592e-01 1.6681604087352753e-02</leafValues></_>
    <_>
      <internalNodes>
        0 -1 32620 -1.0271227918565273e-02</internalNodes>
      <leafValues>
        1.7133051156997681e-01 -6.1465114355087280e-02</leafValues></_>
    <_>
      <internalNodes>
        0 -1 153968 5.2968179807066917e-03</internalNodes>
      <leafValues>
        2.2446801885962486e-02 -4.5955088734626770e-01</leafValues></_>
    <_>
      <internalNodes>
        0 -1 137681 -4.5419102534651756e-03</internalNodes>
      <leafValues>
        6.8113200366497040e-02 -1.5515947341918945e-01</leafValues></_>
    <_>
      <internalNodes>
        0 -1 55792 -3.7782203406095505e-02</internalNodes>
      <leafValues>
        1.7412215471267700e-01 -6.9700673222541809e-02</leafValues></_>
    <_>
      <internalNodes>
        0 -1 148295 -1.2586962839122862e-04</internalNodes>
      <leafValues>
        -1.7157337069511414e-01 6.2941513955593109e-02</leafValues></_>
    <_>
      <internalNodes>
        0 -1 66136 -5.6755268014967442e-03</internalNodes>
      <leafValues>
        -4.2043343186378479e-01 2.3829298093914986e-02</leafValues></_>
    <_>
      <internalNodes>
        0 -1 74468 7.3788024019449949e-04</internalNodes>
      <leafValues>
        -7.7924579381942749e-02 1.3140082359313965e-01</leafValues></_>
    <_>
      <internalNodes>
        0 -1 40668 -5.6977438926696777e-01</internalNodes>
      <leafValues>
        -5.1649427413940430e-01 1.8890349194407463e-02</leafValues></_>
    <_>
      <internalNodes>
        0 -1 156899 4.4999904930591583e-02</internalNodes>
      <leafValues>
        3.3912722021341324e-02 -2.8074792027473450e-01</leafValues></_>
    <_>
      <internalNodes>
        0 -1 162023 -3.2021082006394863e-05</internalNodes>
      <leafValues>
        1.0180745273828506e-01 -1.0720308125019073e-01</leafValues></_>
    <_>
      <internalNodes>
        0 -1 55562 -1.4341427944600582e-02</internalNodes>
      <leafValues>
        -7.5806683301925659e-01 1.2696512974798679e-02</leafValues></_>
    <_>
      <internalNodes>
        0 -1 114603 8.7175898253917694e-02</internalNodes>
      <leafValues>
        1.6746848821640015e-02 -5.1489007472991943e-01</leafValues></_>
    <_>
      <internalNodes>
        0 -1 112889 -3.4543318906798959e-04</internalNodes>
      <leafValues>
        1.0071445256471634e-01 -1.0328499227762222e-01</leafValues></_>
    <_>
      <internalNodes>
        0 -1 147754 -7.6880911365151405e-03</internalNodes>
      <leafValues>
        -5.6435579061508179e-01 1.6751687973737717e-02</leafValues></_>
    <_>
      <internalNodes>
        0 -1 143677 2.0450871437788010e-02</internalNodes>
      <leafValues>
        -2.6242155581712723e-02 4.2204311490058899e-01</leafValues></_>
    <_>
      <internalNodes>
        0 -1 67624 -3.2121640443801880e-01</internalNodes>
      <leafValues>
        7.4007785320281982e-01 -1.1693935841321945e-02</leafValues></_>
    <_>
      <internalNodes>
        0 -1 77243 -9.9693480879068375e-03</internalNodes>
      <leafValues>
        1.3232368230819702e-01 -7.5454346835613251e-02</leafValues></_>
    <_>
      <internalNodes>
        0 -1 111579 2.8619606047868729e-02</internalNodes>
      <leafValues>
        -2.7081869542598724e-02 4.8931193351745605e-01</leafValues></_>
    <_>
      <internalNodes>
        0 -1 25806 -9.1140565928071737e-04</internalNodes>
      <leafValues>
        -2.4781505763530731e-01 4.2523298412561417e-02</leafValues></_>
    <_>
      <internalNodes>
        0 -1 142396 -3.2406435348093510e-03</internalNodes>
      <leafValues>
        -5.6727951765060425e-01 1.5246055088937283e-02</leafValues></_>
    <_>
      <internalNodes>
        0 -1 11895 -9.2498417943716049e-03</internalNodes>
      <leafValues>
        -3.8461399078369141e-01 2.4695789441466331e-02</leafValues></_>
    <_>
      <internalNodes>
        0 -1 40900 -2.6198923587799072e-02</internalNodes>
      <leafValues>
        2.2515293955802917e-01 -4.5320075005292892e-02</leafValues></_>
    <_>
      <internalNodes>
        0 -1 51229 -1.0529188439249992e-02</internalNodes>
      <leafValues>
        5.1752156019210815e-01 -1.8697794526815414e-02</leafValues></_>
    <_>
      <internalNodes>
        0 -1 156584 -1.4312355779111385e-03</internalNodes>
      <leafValues>
        1.2708389759063721e-01 -7.5805656611919403e-02</leafValues></_>
    <_>
      <internalNodes>
        0 -1 126052 4.1952822357416153e-02</internalNodes>
      <leafValues>
        1.1245705187320709e-02 -7.6627486944198608e-01</leafValues></_>
    <_>
      <internalNodes>
        0 -1 154645 -1.3919936027377844e-03</internalNodes>
      <leafValues>
        -3.1520840525627136e-01 2.8482839465141296e-02</leafValues></_>
    <_>
      <internalNodes>
        0 -1 147501 1.3989692553877831e-02</internalNodes>
      <leafValues>
        -3.7478838115930557e-02 2.7456048130989075e-01</leafValues></_>
    <_>
      <internalNodes>
        0 -1 143211 -1.9178576767444611e-02</internalNodes>
      <leafValues>
        4.4137540459632874e-01 -2.2037861868739128e-02</leafValues></_>
    <_>
      <internalNodes>
        0 -1 52214 -1.0443468391895294e-01</internalNodes>
      <leafValues>
        8.5901129245758057e-01 -1.0713038034737110e-02</leafValues></_>
    <_>
      <internalNodes>
        0 -1 152498 7.3004732839763165e-03</internalNodes>
      <leafValues>
        -2.8444053605198860e-02 3.1255263090133667e-01</leafValues></_>
    <_>
      <internalNodes>
        0 -1 159722 4.9343337304890156e-03</internalNodes>
      <leafValues>
        1.0349074378609657e-02 -8.2445567846298218e-01</leafValues></_>
    <_>
      <internalNodes>
        0 -1 108583 2.3735646391287446e-04</internalNodes>
      <leafValues>
        5.8403581380844116e-02 -1.5523859858512878e-01</leafValues></_>
    <_>
      <internalNodes>
        0 -1 59204 5.6816102005541325e-04</internalNodes>
      <leafValues>
        3.8429811596870422e-02 -2.6019203662872314e-01</leafValues></_>
    <_>
      <internalNodes>
        0 -1 80470 -4.1253522795159370e-05</internalNodes>
      <leafValues>
        1.2366551160812378e-01 -8.1096634268760681e-02</leafValues></_>
    <_>
      <internalNodes>
        0 -1 20988 8.9568679686635733e-04</internalNodes>
      <leafValues>
        -6.3241943717002869e-02 1.6890943050384521e-01</leafValues></_>
    <_>
      <internalNodes>
        0 -1 128280 1.2839229311794043e-03</internalNodes>
      <leafValues>
        6.1135277152061462e-02 -1.5236252546310425e-01</leafValues></_>
    <_>
      <internalNodes>
        0 -1 66687 3.9140231820056215e-05</internalNodes>
      <leafValues>
        -9.3670442700386047e-02 1.0375739634037018e-01</leafValues></_>
    <_>
      <internalNodes>
        0 -1 155231 7.5546762673184276e-05</internalNodes>
      <leafValues>
        -1.0140389204025269e-01 9.5694415271282196e-02</leafValues></_>
    <_>
      <internalNodes>
        0 -1 151880 -2.9486641869880259e-04</internalNodes>
      <leafValues>
        -2.2948579490184784e-01 3.8662571460008621e-02</leafValues></_>
    <_>
      <internalNodes>
        0 -1 11537 5.1517896354198456e-03</internalNodes>
      <leafValues>
        -5.9417191892862320e-02 1.6212584078311920e-01</leafValues></_>
    <_>
      <internalNodes>
        0 -1 11922 -1.9478894537314773e-03</internalNodes>
      <leafValues>
        1.4311954379081726e-01 -9.7703561186790466e-02</leafValues></_>
    <_>
      <internalNodes>
        0 -1 48494 3.5142767592333257e-04</internalNodes>
      <leafValues>
        -7.2734206914901733e-02 1.2951885163784027e-01</leafValues></_>
    <_>
      <internalNodes>
        0 -1 125055 -2.8944704681634903e-03</internalNodes>
      <leafValues>
        -3.7417045235633850e-01 2.4071002379059792e-02</leafValues></_>
    <_>
      <internalNodes>
        0 -1 161183 2.8326461324468255e-04</internalNodes>
      <leafValues>
        4.2131282389163971e-02 -2.0740608870983124e-01</leafValues></_>
    <_>
      <internalNodes>
        0 -1 18029 4.1076407796936110e-05</internalNodes>
      <leafValues>
        -1.1573094874620438e-01 8.2231976091861725e-02</leafValues></_>
    <_>
      <internalNodes>
        0 -1 135860 2.7776071801781654e-03</internalNodes>
      <leafValues>
        -4.5395549386739731e-02 2.0935529470443726e-01</leafValues></_>
    <_>
      <internalNodes>
        0 -1 3847 -1.0564638674259186e-01</internalNodes>
      <leafValues>
        -2.4822908639907837e-01 4.2152166366577148e-02</leafValues></_>
    <_>
      <internalNodes>
        0 -1 131780 5.6560091674327850e-02</internalNodes>
      <leafValues>
        1.1817790567874908e-02 -6.5213501453399658e-01</leafValues></_>
    <_>
      <internalNodes>
        0 -1 18201 -2.6207028422504663e-03</internalNodes>
      <leafValues>
        1.1665895581245422e-01 -7.6394200325012207e-02</leafValues></_>
    <_>
      <internalNodes>
        0 -1 4288 -1.5793357044458389e-02</internalNodes>
      <leafValues>
        -2.2238945960998535e-01 4.8186007887125015e-02</leafValues></_>
    <_>
      <internalNodes>
        0 -1 106756 2.2932398132979870e-03</internalNodes>
      <leafValues>
        -3.5328522324562073e-02 2.5366428494453430e-01</leafValues></_>
    <_>
      <internalNodes>
        0 -1 114294 1.2817087117582560e-03</internalNodes>
      <leafValues>
        1.4334365725517273e-02 -7.6457864046096802e-01</leafValues></_>
    <_>
      <internalNodes>
        0 -1 161183 -1.6038946341723204e-04</internalNodes>
      <leafValues>
        -1.6948364675045013e-01 5.1272392272949219e-02</leafValues></_>
    <_>
      <internalNodes>
        0 -1 41483 -2.7890946512343362e-05</internalNodes>
      <leafValues>
        1.0591959953308105e-01 -8.2345902919769287e-02</leafValues></_>
    <_>
      <internalNodes>
        0 -1 125414 2.4875700473785400e-03</internalNodes>
      <leafValues>
        1.7588075250387192e-02 -4.9874266982078552e-01</leafValues></_>
    <_>
      <internalNodes>
        0 -1 129527 4.0277674794197083e-02</internalNodes>
      <leafValues>
        -1.5467825345695019e-02 6.5265774726867676e-01</leafValues></_>
    <_>
      <internalNodes>
        0 -1 93370 -6.8055968731641769e-03</internalNodes>
      <leafValues>
        1.1546162515878677e-01 -8.3467945456504822e-02</leafValues></_>
    <_>
      <internalNodes>
        0 -1 154463 1.5297167003154755e-02</internalNodes>
      <leafValues>
        -4.3719168752431870e-02 2.0609720051288605e-01</leafValues></_>
    <_>
      <internalNodes>
        0 -1 154677 -3.8062140811234713e-04</internalNodes>
      <leafValues>
        1.0393258929252625e-01 -8.6193151772022247e-02</leafValues></_>
    <_>
      <internalNodes>
        0 -1 95209 -1.5418806578963995e-03</internalNodes>
      <leafValues>
        6.4047314226627350e-02 -1.4045359194278717e-01</leafValues></_>
    <_>
      <internalNodes>
        0 -1 141333 -2.2556148469448090e-03</internalNodes>
      <leafValues>
        2.3222281038761139e-01 -4.5210156589746475e-02</leafValues></_>
    <_>
      <internalNodes>
        0 -1 109638 3.5639412817545235e-04</internalNodes>
      <leafValues>
        4.9323022365570068e-02 -1.9739052653312683e-01</leafValues></_>
    <_>
      <internalNodes>
        0 -1 13343 -7.5058817863464355e-02</internalNodes>
      <leafValues>
        -6.6756594181060791e-01 1.4007882215082645e-02</leafValues></_>
    <_>
      <internalNodes>
        0 -1 159271 2.8784226626157761e-02</internalNodes>
      <leafValues>
        -3.6423008888959885e-02 2.6879459619522095e-01</leafValues></_>
    <_>
      <internalNodes>
        0 -1 18591 2.8993999585509300e-02</internalNodes>
      <leafValues>
        -6.4113147556781769e-02 1.5194268524646759e-01</leafValues></_>
    <_>
      <internalNodes>
        0 -1 60048 -3.8607129827141762e-03</internalNodes>
      <leafValues>
        1.8234781920909882e-01 -5.1727503538131714e-02</leafValues></_>
    <_>
      <internalNodes>
        0 -1 114292 2.1310029842425138e-04</internalNodes>
      <leafValues>
        4.9421094357967377e-02 -1.9686239957809448e-01</leafValues></_>
    <_>
      <internalNodes>
        0 -1 114310 -1.1977000394836068e-04</internalNodes>
      <leafValues>
        9.4701357185840607e-02 -1.0023223608732224e-01</leafValues></_>
    <_>
      <internalNodes>
        0 -1 121081 2.0521190017461777e-03</internalNodes>
      <leafValues>
        -5.9341013431549072e-02 1.5537050366401672e-01</leafValues></_>
    <_>
      <internalNodes>
        0 -1 143628 1.3911575661040843e-04</internalNodes>
      <leafValues>
        7.1070425212383270e-02 -1.2872585654258728e-01</leafValues></_>
    <_>
      <internalNodes>
        0 -1 23619 4.2791094165295362e-04</internalNodes>
      <leafValues>
        -5.7924997061491013e-02 1.5275900065898895e-01</leafValues></_>
    <_>
      <internalNodes>
        0 -1 102082 -5.7814002502709627e-04</internalNodes>
      <leafValues>
        8.9323081076145172e-02 -1.0005142539739609e-01</leafValues></_>
    <_>
      <internalNodes>
        0 -1 155514 -4.4776583672501147e-04</internalNodes>
      <leafValues>
        1.0375057905912399e-01 -9.1418176889419556e-02</leafValues></_>
    <_>
      <internalNodes>
        0 -1 145999 -1.2923895847052336e-03</internalNodes>
      <leafValues>
        9.8475657403469086e-02 -9.0533927083015442e-02</leafValues></_>
    <_>
      <internalNodes>
        0 -1 131303 -5.9447102248668671e-03</internalNodes>
      <leafValues>
        1.3722676038742065e-01 -7.9499118030071259e-02</leafValues></_></weakClassifiers></stage14>
</opencv_storage>
