<?xml version="1.0"?>
<opencv_storage>
<stage4>
  <maxWeakCount>68</maxWeakCount>
  <stageThreshold>-1.0601596832275391e+00</stageThreshold>
  <weakClassifiers>
    <_>
      <internalNodes>
        0 -1 67138 -2.0959776639938354e-01</internalNodes>
      <leafValues>
        6.9629631936550140e-02 -4.5032256841659546e-01</leafValues></_>
    <_>
      <internalNodes>
        0 -1 13190 -1.3933747541159391e-03</internalNodes>
      <leafValues>
        3.0493265390396118e-01 -1.8037548661231995e-01</leafValues></_>
    <_>
      <internalNodes>
        0 -1 98400 1.1736497981473804e-05</internalNodes>
      <leafValues>
        -2.2159725427627563e-01 1.8560671806335449e-01</leafValues></_>
    <_>
      <internalNodes>
        0 -1 152590 -1.1763999238610268e-02</internalNodes>
      <leafValues>
        2.7358537912368774e-01 -1.4194606244564056e-01</leafValues></_>
    <_>
      <internalNodes>
        0 -1 85099 2.8618499636650085e-02</internalNodes>
      <leafValues>
        -9.3924313783645630e-02 4.1403037309646606e-01</leafValues></_>
    <_>
      <internalNodes>
        0 -1 80767 -2.5600295048207045e-03</internalNodes>
      <leafValues>
        -5.4857361316680908e-01 6.7725419998168945e-02</leafValues></_>
    <_>
      <internalNodes>
        0 -1 103953 7.2133410722017288e-03</internalNodes>
      <leafValues>
        -8.6922839283943176e-02 3.5287487506866455e-01</leafValues></_>
    <_>
      <internalNodes>
        0 -1 89883 -1.8888661637902260e-02</internalNodes>
      <leafValues>
        -8.6270725727081299e-01 3.0819987878203392e-02</leafValues></_>
    <_>
      <internalNodes>
        0 -1 1563 -2.6828985661268234e-02</internalNodes>
      <leafValues>
        5.1937907934188843e-01 -6.1013851314783096e-02</leafValues></_>
    <_>
      <internalNodes>
        0 -1 61189 3.4394357353448868e-02</internalNodes>
      <leafValues>
        -1.1532398313283920e-01 2.9638823866844177e-01</leafValues></_>
    <_>
      <internalNodes>
        0 -1 89224 1.8066864460706711e-02</internalNodes>
      <leafValues>
        -4.8611529171466827e-02 4.5966923236846924e-01</leafValues></_>
    <_>
      <internalNodes>
        0 -1 106789 -9.2112930724397302e-04</internalNodes>
      <leafValues>
        -6.4112967252731323e-01 4.1742358356714249e-02</leafValues></_>
    <_>
      <internalNodes>
        0 -1 148219 2.2643327247351408e-03</internalNodes>
      <leafValues>
        -1.7403253912925720e-01 1.9723039865493774e-01</leafValues></_>
    <_>
      <internalNodes>
        0 -1 16427 -1.4057063497602940e-02</internalNodes>
      <leafValues>
        2.7503237128257751e-01 -1.1938472092151642e-01</leafValues></_>
    <_>
      <internalNodes>
        0 -1 19596 4.1322186589241028e-03</internalNodes>
      <leafValues>
        -1.0255054384469986e-01 4.0375441312789917e-01</leafValues></_>
    <_>
      <internalNodes>
        0 -1 162099 -6.6388410050421953e-04</internalNodes>
      <leafValues>
        -5.9021204710006714e-01 6.5481431782245636e-02</leafValues></_>
    <_>
      <internalNodes>
        0 -1 161183 -9.4316143076866865e-04</internalNodes>
      <leafValues>
        -6.0576349496841431e-01 4.8884171992540359e-02</leafValues></_>
    <_>
      <internalNodes>
        0 -1 148057 2.5075734592974186e-03</internalNodes>
      <leafValues>
        -1.5179817378520966e-01 2.4172343313694000e-01</leafValues></_>
    <_>
      <internalNodes>
        0 -1 143083 4.8481617122888565e-03</internalNodes>
      <leafValues>
        -1.0479672253131866e-01 2.7305045723915100e-01</leafValues></_>
    <_>
      <internalNodes>
        0 -1 142881 -1.8262811936438084e-03</internalNodes>
      <leafValues>
        2.2334346175193787e-01 -1.3628834486007690e-01</leafValues></_>
    <_>
      <internalNodes>
        0 -1 106789 6.6584988962858915e-04</internalNodes>
      <leafValues>
        5.5586110800504684e-02 -5.6615060567855835e-01</leafValues></_>
    <_>
      <internalNodes>
        0 -1 118250 4.0091085247695446e-04</internalNodes>
      <leafValues>
        7.7562838792800903e-02 -3.2918623089790344e-01</leafValues></_>
    <_>
      <internalNodes>
        0 -1 158774 4.4654957950115204e-02</internalNodes>
      <leafValues>
        6.2875933945178986e-02 -4.1248422861099243e-01</leafValues></_>
    <_>
      <internalNodes>
        0 -1 113154 -4.0189072489738464e-02</internalNodes>
      <leafValues>
        6.9493985176086426e-01 -4.0443770587444305e-02</leafValues></_>
    <_>
      <internalNodes>
        0 -1 2 -8.4629963384941220e-04</internalNodes>
      <leafValues>
        -3.4572637081146240e-01 7.5912870466709137e-02</leafValues></_>
    <_>
      <internalNodes>
        0 -1 128796 1.1311924085021019e-02</internalNodes>
      <leafValues>
        -8.2428567111492157e-02 3.5102534294128418e-01</leafValues></_>
    <_>
      <internalNodes>
        0 -1 18206 -6.5356222912669182e-03</internalNodes>
      <leafValues>
        2.2961078584194183e-01 -1.2049958854913712e-01</leafValues></_>
    <_>
      <internalNodes>
        0 -1 4332 2.8785541653633118e-02</internalNodes>
      <leafValues>
        -1.1578796803951263e-01 2.6282399892807007e-01</leafValues></_>
    <_>
      <internalNodes>
        0 -1 134055 1.7932116985321045e-02</internalNodes>
      <leafValues>
        -3.7198510020971298e-02 8.1612020730972290e-01</leafValues></_>
    <_>
      <internalNodes>
        0 -1 12003 -1.2556938454508781e-02</internalNodes>
      <leafValues>
        2.2544535994529724e-01 -1.2046276032924652e-01</leafValues></_>
    <_>
      <internalNodes>
        0 -1 117434 -9.3266431940719485e-04</internalNodes>
      <leafValues>
        -3.5022464394569397e-01 7.3181770741939545e-02</leafValues></_>
    <_>
      <internalNodes>
        0 -1 130888 -1.8706234404817224e-03</internalNodes>
      <leafValues>
        4.0949100255966187e-01 -7.7301494777202606e-02</leafValues></_>
    <_>
      <internalNodes>
        0 -1 162143 1.4364203438162804e-02</internalNodes>
      <leafValues>
        4.2355261743068695e-02 -6.3417625427246094e-01</leafValues></_>
    <_>
      <internalNodes>
        0 -1 124971 8.6747761815786362e-03</internalNodes>
      <leafValues>
        -6.9304302334785461e-02 4.1293337941169739e-01</leafValues></_>
    <_>
      <internalNodes>
        0 -1 2115 -2.2543558478355408e-01</internalNodes>
      <leafValues>
        -7.2242814302444458e-01 4.7200109809637070e-02</leafValues></_>
    <_>
      <internalNodes>
        0 -1 4294 -6.8724481388926506e-03</internalNodes>
      <leafValues>
        -2.6175913214683533e-01 1.0340869426727295e-01</leafValues></_>
    <_>
      <internalNodes>
        0 -1 144400 -5.5153127759695053e-03</internalNodes>
      <leafValues>
        -6.4364218711853027e-01 3.8289070129394531e-02</leafValues></_>
    <_>
      <internalNodes>
        0 -1 29846 -9.6461540088057518e-03</internalNodes>
      <leafValues>
        2.6198625564575195e-01 -1.0927905142307281e-01</leafValues></_>
    <_>
      <internalNodes>
        0 -1 121237 1.2083643014193512e-05</internalNodes>
      <leafValues>
        -1.3625928759574890e-01 1.9734990596771240e-01</leafValues></_>
    <_>
      <internalNodes>
        0 -1 137098 -3.8260146975517273e-03</internalNodes>
      <leafValues>
        -4.9380055069923401e-01 5.0998635590076447e-02</leafValues></_>
    <_>
      <internalNodes>
        0 -1 132149 -1.6622439026832581e-02</internalNodes>
      <leafValues>
        3.9918163418769836e-01 -7.9018659889698029e-02</leafValues></_>
    <_>
      <internalNodes>
        0 -1 87128 5.2280705422163010e-03</internalNodes>
      <leafValues>
        -1.1255587637424469e-01 2.5173842906951904e-01</leafValues></_>
    <_>
      <internalNodes>
        0 -1 21558 -2.8002694307360798e-05</internalNodes>
      <leafValues>
        1.9589239358901978e-01 -1.4246347546577454e-01</leafValues></_>
    <_>
      <internalNodes>
        0 -1 60448 -3.1296436209231615e-03</internalNodes>
      <leafValues>
        -5.2209132909774780e-01 5.8575443923473358e-02</leafValues></_>
    <_>
      <internalNodes>
        0 -1 34352 -2.0118434913456440e-03</internalNodes>
      <leafValues>
        2.1609035134315491e-01 -1.3156443834304810e-01</leafValues></_>
    <_>
      <internalNodes>
        0 -1 127993 7.1887814556248486e-05</internalNodes>
      <leafValues>
        -1.6064105927944183e-01 1.7749540507793427e-01</leafValues></_>
    <_>
      <internalNodes>
        0 -1 139238 -1.1067676823586226e-03</internalNodes>
      <leafValues>
        -4.4402706623077393e-01 6.2900722026824951e-02</leafValues></_>
    <_>
      <internalNodes>
        0 -1 71425 1.4458017423748970e-02</internalNodes>
      <leafValues>
        -7.2093680500984192e-02 3.9427778124809265e-01</leafValues></_>
    <_>
      <internalNodes>
        0 -1 8876 4.4272383674979210e-03</internalNodes>
      <leafValues>
        -1.1735989898443222e-01 2.4076402187347412e-01</leafValues></_>
    <_>
      <internalNodes>
        0 -1 8893 -3.6298192571848631e-03</internalNodes>
      <leafValues>
        2.2438418865203857e-01 -1.3750597834587097e-01</leafValues></_>
    <_>
      <internalNodes>
        0 -1 111014 7.1325321914628148e-04</internalNodes>
      <leafValues>
        7.8152328729629517e-02 -3.9253190159797668e-01</leafValues></_>
    <_>
      <internalNodes>
        0 -1 11925 2.4943803437054157e-03</internalNodes>
      <leafValues>
        -1.1746456474065781e-01 2.6894512772560120e-01</leafValues></_>
    <_>
      <internalNodes>
        0 -1 139200 -1.0177430231124163e-03</internalNodes>
      <leafValues>
        -7.5904107093811035e-01 3.8505498319864273e-02</leafValues></_>
    <_>
      <internalNodes>
        0 -1 140734 -2.7317586354911327e-03</internalNodes>
      <leafValues>
        1.4335104823112488e-01 -1.9007565081119537e-01</leafValues></_>
    <_>
      <internalNodes>
        0 -1 109822 -4.8134944518096745e-04</internalNodes>
      <leafValues>
        1.6560590267181396e-01 -1.8539579212665558e-01</leafValues></_>
    <_>
      <internalNodes>
        0 -1 145188 -9.1823646798729897e-03</internalNodes>
      <leafValues>
        3.0684933066368103e-01 -1.1132273823022842e-01</leafValues></_>
    <_>
      <internalNodes>
        0 -1 114988 -5.7866389397531748e-04</internalNodes>
      <leafValues>
        -3.8613516092300415e-01 7.8928567469120026e-02</leafValues></_>
    <_>
      <internalNodes>
        0 -1 155182 1.1234492376388516e-05</internalNodes>
      <leafValues>
        -1.4419829845428467e-01 2.0539523661136627e-01</leafValues></_>
    <_>
      <internalNodes>
        0 -1 148302 -8.7196857202798128e-04</internalNodes>
      <leafValues>
        -4.0253069996833801e-01 7.4495010077953339e-02</leafValues></_>
    <_>
      <internalNodes>
        0 -1 12362 -9.1563791036605835e-02</internalNodes>
      <leafValues>
        -6.3041478395462036e-01 3.9624974131584167e-02</leafValues></_>
    <_>
      <internalNodes>
        0 -1 13296 -1.1621266821748577e-05</internalNodes>
      <leafValues>
        1.6614580154418945e-01 -1.5953439474105835e-01</leafValues></_>
    <_>
      <internalNodes>
        0 -1 79927 -4.3715424835681915e-03</internalNodes>
      <leafValues>
        2.8145971894264221e-01 -8.7079681456089020e-02</leafValues></_>
    <_>
      <internalNodes>
        0 -1 99997 1.4894736930727959e-02</internalNodes>
      <leafValues>
        3.8427863270044327e-02 -7.1489524841308594e-01</leafValues></_>
    <_>
      <internalNodes>
        0 -1 13058 2.4910035426728427e-04</internalNodes>
      <leafValues>
        -1.6325283050537109e-01 1.4658965170383453e-01</leafValues></_>
    <_>
      <internalNodes>
        0 -1 61147 2.6325386017560959e-02</internalNodes>
      <leafValues>
        -8.2481138408184052e-02 3.2506868243217468e-01</leafValues></_>
    <_>
      <internalNodes>
        0 -1 50303 -2.2655863314867020e-02</internalNodes>
      <leafValues>
        2.5613197684288025e-01 -1.1189196258783340e-01</leafValues></_>
    <_>
      <internalNodes>
        0 -1 67764 9.4616338610649109e-03</internalNodes>
      <leafValues>
        -9.6139848232269287e-02 3.0041933059692383e-01</leafValues></_>
    <_>
      <internalNodes>
        0 -1 40863 -1.6498286277055740e-02</internalNodes>
      <leafValues>
        2.2117355465888977e-01 -1.1780630052089691e-01</leafValues></_></weakClassifiers></stage4>
</opencv_storage>
